digraph Tree {
node [shape=box, style="rounded", color="black", fontname=helvetica] ;
edge [fontname=helvetica] ;
0 [label="new_user_0 <= 0.5\ngini = 0.1\nsamples = 159929\nvalue = [244942, 8016]"] ;
1 [label="country_Germany <= 0.5\ngini = 0.0\nsamples = 109634\nvalue = [170963, 2377]"] ;
0 -> 1 [labeldistance=2.5, labelangle=45, headlabel="True"] ;
2 [label="total_pages_visited <= 13.5\ngini = 0.0\nsamples = 105187\nvalue = [164078, 2187]"] ;
1 -> 2 ;
3 [label="country_China <= 0.5\ngini = 0.0\nsamples = 103871\nvalue = [163359, 842]"] ;
2 -> 3 ;
4 [label="source_Direct <= 0.5\ngini = 0.0\nsamples = 76937\nvalue = [121003, 831]"] ;
3 -> 4 ;
5 [label="country_US <= 0.5\ngini = 0.0\nsamples = 59086\nvalue = [92832, 619]"] ;
4 -> 5 ;
6 [label="age <= 32.5\ngini = 0.0\nsamples = 12513\nvalue = [19695, 154]"] ;
5 -> 6 ;
7 [label="source_Seo <= 0.5\ngini = 0.0\nsamples = 7652\nvalue = [11923, 136]"] ;
6 -> 7 ;
8 [label="age <= 30.5\ngini = 0.0\nsamples = 2843\nvalue = [4429, 46]"] ;
7 -> 8 ;
9 [label="total_pages_visited <= 11.5\ngini = 0.0\nsamples = 2465\nvalue = [3840, 44]"] ;
8 -> 9 ;
10 [label="total_pages_visited <= 9.5\ngini = 0.0\nsamples = 2412\nvalue = [3781, 18]"] ;
9 -> 10 ;
11 [label="age <= 28.5\ngini = 0.0\nsamples = 2299\nvalue = [3619, 3]"] ;
10 -> 11 ;
12 [label="age <= 21.5\ngini = 0.0\nsamples = 1911\nvalue = [2977, 1]"] ;
11 -> 12 ;
13 [label="total_pages_visited <= 7.5\ngini = 0.0\nsamples = 610\nvalue = [941, 1]"] ;
12 -> 13 ;
14 [label="gini = 0.0\nsamples = 551\nvalue = [851, 0]"] ;
13 -> 14 ;
15 [label="age <= 20.5\ngini = 0.0\nsamples = 59\nvalue = [90, 1]"] ;
13 -> 15 ;
16 [label="gini = 0.0\nsamples = 46\nvalue = [68, 0]"] ;
15 -> 16 ;
17 [label="total_pages_visited <= 8.5\ngini = 0.1\nsamples = 13\nvalue = [22, 1]"] ;
15 -> 17 ;
18 [label="gini = 0.1\nsamples = 10\nvalue = [17, 1]"] ;
17 -> 18 ;
19 [label="gini = 0.0\nsamples = 3\nvalue = [5, 0]"] ;
17 -> 19 ;
20 [label="gini = 0.0\nsamples = 1301\nvalue = [2036, 0]"] ;
12 -> 20 ;
21 [label="total_pages_visited <= 3.5\ngini = 0.0\nsamples = 388\nvalue = [642, 2]"] ;
11 -> 21 ;
22 [label="age <= 29.5\ngini = 0.0\nsamples = 154\nvalue = [248, 2]"] ;
21 -> 22 ;
23 [label="total_pages_visited <= 2.5\ngini = 0.0\nsamples = 82\nvalue = [127, 2]"] ;
22 -> 23 ;
24 [label="gini = 0.0\nsamples = 46\nvalue = [74, 0]"] ;
23 -> 24 ;
25 [label="gini = 0.1\nsamples = 36\nvalue = [53, 2]"] ;
23 -> 25 ;
26 [label="gini = 0.0\nsamples = 72\nvalue = [121, 0]"] ;
22 -> 26 ;
27 [label="gini = 0.0\nsamples = 234\nvalue = [394, 0]"] ;
21 -> 27 ;
28 [label="total_pages_visited <= 10.5\ngini = 0.2\nsamples = 113\nvalue = [162, 15]"] ;
10 -> 28 ;
29 [label="age <= 28.5\ngini = 0.2\nsamples = 65\nvalue = [88, 8]"] ;
28 -> 29 ;
30 [label="age <= 17.5\ngini = 0.1\nsamples = 53\nvalue = [73, 4]"] ;
29 -> 30 ;
31 [label="gini = 0.4\nsamples = 4\nvalue = [3, 1]"] ;
30 -> 31 ;
32 [label="age <= 24.5\ngini = 0.1\nsamples = 49\nvalue = [70, 3]"] ;
30 -> 32 ;
33 [label="age <= 23.5\ngini = 0.1\nsamples = 27\nvalue = [39, 3]"] ;
32 -> 33 ;
34 [label="age <= 20.5\ngini = 0.1\nsamples = 24\nvalue = [36, 1]"] ;
33 -> 34 ;
35 [label="age <= 19.5\ngini = 0.2\nsamples = 7\nvalue = [8, 1]"] ;
34 -> 35 ;
36 [label="gini = 0.0\nsamples = 4\nvalue = [6, 0]"] ;
35 -> 36 ;
37 [label="gini = 0.4\nsamples = 3\nvalue = [2, 1]"] ;
35 -> 37 ;
38 [label="gini = 0.0\nsamples = 17\nvalue = [28, 0]"] ;
34 -> 38 ;
39 [label="gini = 0.5\nsamples = 3\nvalue = [3, 2]"] ;
33 -> 39 ;
40 [label="gini = 0.0\nsamples = 22\nvalue = [31, 0]"] ;
32 -> 40 ;
41 [label="age <= 29.5\ngini = 0.3\nsamples = 12\nvalue = [15, 4]"] ;
29 -> 41 ;
42 [label="gini = 0.3\nsamples = 7\nvalue = [9, 2]"] ;
41 -> 42 ;
43 [label="gini = 0.4\nsamples = 5\nvalue = [6, 2]"] ;
41 -> 43 ;
44 [label="age <= 27.5\ngini = 0.2\nsamples = 48\nvalue = [74, 7]"] ;
28 -> 44 ;
45 [label="age <= 20.5\ngini = 0.1\nsamples = 35\nvalue = [58, 2]"] ;
44 -> 45 ;
46 [label="age <= 18.5\ngini = 0.3\nsamples = 8\nvalue = [10, 2]"] ;
45 -> 46 ;
47 [label="gini = 0.0\nsamples = 4\nvalue = [7, 0]"] ;
46 -> 47 ;
48 [label="age <= 19.5\ngini = 0.5\nsamples = 4\nvalue = [3, 2]"] ;
46 -> 48 ;
49 [label="gini = 0.0\nsamples = 1\nvalue = [0, 1]"] ;
48 -> 49 ;
50 [label="gini = 0.4\nsamples = 3\nvalue = [3, 1]"] ;
48 -> 50 ;
51 [label="gini = 0.0\nsamples = 27\nvalue = [48, 0]"] ;
45 -> 51 ;
52 [label="age <= 28.5\ngini = 0.4\nsamples = 13\nvalue = [16, 5]"] ;
44 -> 52 ;
53 [label="gini = 0.5\nsamples = 4\nvalue = [3, 3]"] ;
52 -> 53 ;
54 [label="age <= 29.5\ngini = 0.2\nsamples = 9\nvalue = [13, 2]"] ;
52 -> 54 ;
55 [label="gini = 0.0\nsamples = 4\nvalue = [8, 0]"] ;
54 -> 55 ;
56 [label="gini = 0.4\nsamples = 5\nvalue = [5, 2]"] ;
54 -> 56 ;
57 [label="age <= 27.5\ngini = 0.4\nsamples = 53\nvalue = [59, 26]"] ;
9 -> 57 ;
58 [label="age <= 26.5\ngini = 0.5\nsamples = 40\nvalue = [41, 24]"] ;
57 -> 58 ;
59 [label="total_pages_visited <= 12.5\ngini = 0.4\nsamples = 37\nvalue = [41, 16]"] ;
58 -> 59 ;
60 [label="age <= 22.5\ngini = 0.4\nsamples = 26\nvalue = [28, 12]"] ;
59 -> 60 ;
61 [label="age <= 21.5\ngini = 0.5\nsamples = 14\nvalue = [14, 10]"] ;
60 -> 61 ;
62 [label="age <= 18.5\ngini = 0.4\nsamples = 12\nvalue = [14, 7]"] ;
61 -> 62 ;
63 [label="gini = 0.0\nsamples = 3\nvalue = [4, 0]"] ;
62 -> 63 ;
64 [label="age <= 20.0\ngini = 0.5\nsamples = 9\nvalue = [10, 7]"] ;
62 -> 64 ;
65 [label="gini = 0.5\nsamples = 4\nvalue = [5, 3]"] ;
64 -> 65 ;
66 [label="gini = 0.5\nsamples = 5\nvalue = [5, 4]"] ;
64 -> 66 ;
67 [label="gini = 0.0\nsamples = 2\nvalue = [0, 3]"] ;
61 -> 67 ;
68 [label="age <= 24.0\ngini = 0.2\nsamples = 12\nvalue = [14, 2]"] ;
60 -> 68 ;
69 [label="gini = 0.0\nsamples = 3\nvalue = [3, 0]"] ;
68 -> 69 ;
70 [label="age <= 25.5\ngini = 0.3\nsamples = 9\nvalue = [11, 2]"] ;
68 -> 70 ;
71 [label="gini = 0.2\nsamples = 5\nvalue = [6, 1]"] ;
70 -> 71 ;
72 [label="gini = 0.3\nsamples = 4\nvalue = [5, 1]"] ;
70 -> 72 ;
73 [label="age <= 23.5\ngini = 0.4\nsamples = 11\nvalue = [13, 4]"] ;
59 -> 73 ;
74 [label="age <= 20.5\ngini = 0.5\nsamples = 8\nvalue = [7, 4]"] ;
73 -> 74 ;
75 [label="gini = 0.0\nsamples = 2\nvalue = [3, 0]"] ;
74 -> 75 ;
76 [label="age <= 21.5\ngini = 0.5\nsamples = 6\nvalue = [4, 4]"] ;
74 -> 76 ;
77 [label="gini = 0.5\nsamples = 3\nvalue = [2, 3]"] ;
76 -> 77 ;
78 [label="age <= 22.5\ngini = 0.4\nsamples = 3\nvalue = [2, 1]"] ;
76 -> 78 ;
79 [label="gini = 0.0\nsamples = 1\nvalue = [1, 0]"] ;
78 -> 79 ;
80 [label="gini = 0.5\nsamples = 2\nvalue = [1, 1]"] ;
78 -> 80 ;
81 [label="gini = 0.0\nsamples = 3\nvalue = [6, 0]"] ;
73 -> 81 ;
82 [label="gini = 0.0\nsamples = 3\nvalue = [0, 8]"] ;
58 -> 82 ;
83 [label="total_pages_visited <= 12.5\ngini = 0.2\nsamples = 13\nvalue = [18, 2]"] ;
57 -> 83 ;
84 [label="age <= 28.5\ngini = 0.3\nsamples = 9\nvalue = [10, 2]"] ;
83 -> 84 ;
85 [label="gini = 0.5\nsamples = 2\nvalue = [1, 1]"] ;
84 -> 85 ;
86 [label="age <= 29.5\ngini = 0.2\nsamples = 7\nvalue = [9, 1]"] ;
84 -> 86 ;
87 [label="gini = 0.2\nsamples = 5\nvalue = [6, 1]"] ;
86 -> 87 ;
88 [label="gini = 0.0\nsamples = 2\nvalue = [3, 0]"] ;
86 -> 88 ;
89 [label="gini = 0.0\nsamples = 4\nvalue = [8, 0]"] ;
83 -> 89 ;
90 [label="age <= 31.5\ngini = 0.0\nsamples = 378\nvalue = [589, 2]"] ;
8 -> 90 ;
91 [label="total_pages_visited <= 6.5\ngini = 0.0\nsamples = 188\nvalue = [292, 1]"] ;
90 -> 91 ;
92 [label="gini = 0.0\nsamples = 151\nvalue = [229, 0]"] ;
91 -> 92 ;
93 [label="total_pages_visited <= 7.5\ngini = 0.0\nsamples = 37\nvalue = [63, 1]"] ;
91 -> 93 ;
94 [label="gini = 0.1\nsamples = 18\nvalue = [29, 1]"] ;
93 -> 94 ;
95 [label="gini = 0.0\nsamples = 19\nvalue = [34, 0]"] ;
93 -> 95 ;
96 [label="total_pages_visited <= 10.5\ngini = 0.0\nsamples = 190\nvalue = [297, 1]"] ;
90 -> 96 ;
97 [label="gini = 0.0\nsamples = 180\nvalue = [286, 0]"] ;
96 -> 97 ;
98 [label="total_pages_visited <= 11.5\ngini = 0.2\nsamples = 10\nvalue = [11, 1]"] ;
96 -> 98 ;
99 [label="gini = 0.3\nsamples = 6\nvalue = [5, 1]"] ;
98 -> 99 ;
100 [label="gini = 0.0\nsamples = 4\nvalue = [6, 0]"] ;
98 -> 100 ;
101 [label="age <= 22.5\ngini = 0.0\nsamples = 4809\nvalue = [7494, 90]"] ;
7 -> 101 ;
102 [label="total_pages_visited <= 12.5\ngini = 0.0\nsamples = 1468\nvalue = [2319, 41]"] ;
101 -> 102 ;
103 [label="total_pages_visited <= 9.5\ngini = 0.0\nsamples = 1454\nvalue = [2312, 22]"] ;
102 -> 103 ;
104 [label="age <= 18.5\ngini = 0.0\nsamples = 1371\nvalue = [2199, 10]"] ;
103 -> 104 ;
105 [label="gini = 0.0\nsamples = 375\nvalue = [598, 0]"] ;
104 -> 105 ;
106 [label="age <= 21.5\ngini = 0.0\nsamples = 996\nvalue = [1601, 10]"] ;
104 -> 106 ;
107 [label="total_pages_visited <= 7.5\ngini = 0.0\nsamples = 716\nvalue = [1117, 10]"] ;
106 -> 107 ;
108 [label="total_pages_visited <= 5.5\ngini = 0.0\nsamples = 636\nvalue = [990, 4]"] ;
107 -> 108 ;
109 [label="total_pages_visited <= 2.5\ngini = 0.0\nsamples = 495\nvalue = [773, 1]"] ;
108 -> 109 ;
110 [label="gini = 0.0\nsamples = 220\nvalue = [349, 0]"] ;
109 -> 110 ;
111 [label="age <= 19.5\ngini = 0.0\nsamples = 275\nvalue = [424, 1]"] ;
109 -> 111 ;
112 [label="total_pages_visited <= 3.5\ngini = 0.0\nsamples = 102\nvalue = [155, 1]"] ;
111 -> 112 ;
113 [label="gini = 0.0\nsamples = 39\nvalue = [60, 1]"] ;
112 -> 113 ;
114 [label="gini = 0.0\nsamples = 63\nvalue = [95, 0]"] ;
112 -> 114 ;
115 [label="gini = 0.0\nsamples = 173\nvalue = [269, 0]"] ;
111 -> 115 ;
116 [label="age <= 19.5\ngini = 0.0\nsamples = 141\nvalue = [217, 3]"] ;
108 -> 116 ;
117 [label="total_pages_visited <= 6.5\ngini = 0.1\nsamples = 41\nvalue = [63, 2]"] ;
116 -> 117 ;
118 [label="gini = 0.0\nsamples = 26\nvalue = [43, 1]"] ;
117 -> 118 ;
119 [label="gini = 0.1\nsamples = 15\nvalue = [20, 1]"] ;
117 -> 119 ;
120 [label="total_pages_visited <= 6.5\ngini = 0.0\nsamples = 100\nvalue = [154, 1]"] ;
116 -> 120 ;
121 [label="age <= 20.5\ngini = 0.0\nsamples = 60\nvalue = [89, 1]"] ;
120 -> 121 ;
122 [label="gini = 0.0\nsamples = 33\nvalue = [47, 1]"] ;
121 -> 122 ;
123 [label="gini = 0.0\nsamples = 27\nvalue = [42, 0]"] ;
121 -> 123 ;
124 [label="gini = 0.0\nsamples = 40\nvalue = [65, 0]"] ;
120 -> 124 ;
125 [label="total_pages_visited <= 8.5\ngini = 0.1\nsamples = 80\nvalue = [127, 6]"] ;
107 -> 125 ;
126 [label="age <= 19.5\ngini = 0.1\nsamples = 40\nvalue = [66, 2]"] ;
125 -> 126 ;
127 [label="gini = 0.0\nsamples = 11\nvalue = [21, 0]"] ;
126 -> 127 ;
128 [label="age <= 20.5\ngini = 0.1\nsamples = 29\nvalue = [45, 2]"] ;
126 -> 128 ;
129 [label="gini = 0.1\nsamples = 14\nvalue = [20, 1]"] ;
128 -> 129 ;
130 [label="gini = 0.1\nsamples = 15\nvalue = [25, 1]"] ;
128 -> 130 ;
131 [label="age <= 19.5\ngini = 0.1\nsamples = 40\nvalue = [61, 4]"] ;
125 -> 131 ;
132 [label="gini = 0.0\nsamples = 11\nvalue = [16, 0]"] ;
131 -> 132 ;
133 [label="age <= 20.5\ngini = 0.1\nsamples = 29\nvalue = [45, 4]"] ;
131 -> 133 ;
134 [label="gini = 0.2\nsamples = 10\nvalue = [14, 2]"] ;
133 -> 134 ;
135 [label="gini = 0.1\nsamples = 19\nvalue = [31, 2]"] ;
133 -> 135 ;
136 [label="gini = 0.0\nsamples = 280\nvalue = [484, 0]"] ;
106 -> 136 ;
137 [label="total_pages_visited <= 11.5\ngini = 0.2\nsamples = 83\nvalue = [113, 12]"] ;
103 -> 137 ;
138 [label="age <= 20.5\ngini = 0.2\nsamples = 70\nvalue = [100, 9]"] ;
137 -> 138 ;
139 [label="age <= 17.5\ngini = 0.1\nsamples = 47\nvalue = [71, 3]"] ;
138 -> 139 ;
140 [label="total_pages_visited <= 10.5\ngini = 0.3\nsamples = 8\nvalue = [9, 2]"] ;
139 -> 140 ;
141 [label="gini = 0.4\nsamples = 4\nvalue = [5, 2]"] ;
140 -> 141 ;
142 [label="gini = 0.0\nsamples = 4\nvalue = [4, 0]"] ;
140 -> 142 ;
143 [label="age <= 19.5\ngini = 0.0\nsamples = 39\nvalue = [62, 1]"] ;
139 -> 143 ;
144 [label="gini = 0.0\nsamples = 23\nvalue = [35, 0]"] ;
143 -> 144 ;
145 [label="total_pages_visited <= 10.5\ngini = 0.1\nsamples = 16\nvalue = [27, 1]"] ;
143 -> 145 ;
146 [label="gini = 0.1\nsamples = 8\nvalue = [13, 1]"] ;
145 -> 146 ;
147 [label="gini = 0.0\nsamples = 8\nvalue = [14, 0]"] ;
145 -> 147 ;
148 [label="total_pages_visited <= 10.5\ngini = 0.3\nsamples = 23\nvalue = [29, 6]"] ;
138 -> 148 ;
149 [label="age <= 21.5\ngini = 0.1\nsamples = 14\nvalue = [19, 1]"] ;
148 -> 149 ;
150 [label="gini = 0.1\nsamples = 10\nvalue = [12, 1]"] ;
149 -> 150 ;
151 [label="gini = 0.0\nsamples = 4\nvalue = [7, 0]"] ;
149 -> 151 ;
152 [label="age <= 21.5\ngini = 0.4\nsamples = 9\nvalue = [10, 5]"] ;
148 -> 152 ;
153 [label="gini = 0.4\nsamples = 4\nvalue = [5, 2]"] ;
152 -> 153 ;
154 [label="gini = 0.5\nsamples = 5\nvalue = [5, 3]"] ;
152 -> 154 ;
155 [label="age <= 19.5\ngini = 0.3\nsamples = 13\nvalue = [13, 3]"] ;
137 -> 155 ;
156 [label="age <= 17.5\ngini = 0.5\nsamples = 5\nvalue = [3, 3]"] ;
155 -> 156 ;
157 [label="gini = 0.0\nsamples = 1\nvalue = [1, 0]"] ;
156 -> 157 ;
158 [label="age <= 18.5\ngini = 0.5\nsamples = 4\nvalue = [2, 3]"] ;
156 -> 158 ;
159 [label="gini = 0.5\nsamples = 3\nvalue = [2, 2]"] ;
158 -> 159 ;
160 [label="gini = 0.0\nsamples = 1\nvalue = [0, 1]"] ;
158 -> 160 ;
161 [label="gini = 0.0\nsamples = 8\nvalue = [10, 0]"] ;
155 -> 161 ;
162 [label="age <= 19.0\ngini = 0.4\nsamples = 14\nvalue = [7, 19]"] ;
102 -> 162 ;
163 [label="age <= 17.5\ngini = 0.2\nsamples = 5\nvalue = [1, 11]"] ;
162 -> 163 ;
164 [label="gini = 0.0\nsamples = 1\nvalue = [0, 3]"] ;
163 -> 164 ;
165 [label="gini = 0.2\nsamples = 4\nvalue = [1, 8]"] ;
163 -> 165 ;
166 [label="age <= 21.5\ngini = 0.5\nsamples = 9\nvalue = [6, 8]"] ;
162 -> 166 ;
167 [label="age <= 20.5\ngini = 0.4\nsamples = 5\nvalue = [4, 2]"] ;
166 -> 167 ;
168 [label="gini = 0.0\nsamples = 1\nvalue = [1, 0]"] ;
167 -> 168 ;
169 [label="gini = 0.5\nsamples = 4\nvalue = [3, 2]"] ;
167 -> 169 ;
170 [label="gini = 0.4\nsamples = 4\nvalue = [2, 6]"] ;
166 -> 170 ;
171 [label="age <= 31.5\ngini = 0.0\nsamples = 3341\nvalue = [5175, 49]"] ;
101 -> 171 ;
172 [label="age <= 30.5\ngini = 0.0\nsamples = 2987\nvalue = [4611, 41]"] ;
171 -> 172 ;
173 [label="age <= 28.5\ngini = 0.0\nsamples = 2677\nvalue = [4128, 39]"] ;
172 -> 173 ;
174 [label="total_pages_visited <= 12.5\ngini = 0.0\nsamples = 1995\nvalue = [3080, 26]"] ;
173 -> 174 ;
175 [label="age <= 25.5\ngini = 0.0\nsamples = 1981\nvalue = [3067, 18]"] ;
174 -> 175 ;
176 [label="age <= 24.5\ngini = 0.0\nsamples = 943\nvalue = [1469, 11]"] ;
175 -> 176 ;
177 [label="total_pages_visited <= 11.5\ngini = 0.0\nsamples = 622\nvalue = [981, 6]"] ;
176 -> 177 ;
178 [label="total_pages_visited <= 8.5\ngini = 0.0\nsamples = 616\nvalue = [974, 4]"] ;
177 -> 178 ;
179 [label="gini = 0.0\nsamples = 561\nvalue = [887, 0]"] ;
178 -> 179 ;
180 [label="total_pages_visited <= 10.5\ngini = 0.1\nsamples = 55\nvalue = [87, 4]"] ;
178 -> 180 ;
181 [label="total_pages_visited <= 9.5\ngini = 0.1\nsamples = 46\nvalue = [69, 4]"] ;
180 -> 181 ;
182 [label="age <= 23.5\ngini = 0.1\nsamples = 23\nvalue = [35, 2]"] ;
181 -> 182 ;
183 [label="gini = 0.1\nsamples = 13\nvalue = [19, 1]"] ;
182 -> 183 ;
184 [label="gini = 0.1\nsamples = 10\nvalue = [16, 1]"] ;
182 -> 184 ;
185 [label="age <= 23.5\ngini = 0.1\nsamples = 23\nvalue = [34, 2]"] ;
181 -> 185 ;
186 [label="gini = 0.2\nsamples = 16\nvalue = [20, 2]"] ;
185 -> 186 ;
187 [label="gini = 0.0\nsamples = 7\nvalue = [14, 0]"] ;
185 -> 187 ;
188 [label="gini = 0.0\nsamples = 9\nvalue = [18, 0]"] ;
180 -> 188 ;
189 [label="age <= 23.5\ngini = 0.3\nsamples = 6\nvalue = [7, 2]"] ;
177 -> 189 ;
190 [label="gini = 0.0\nsamples = 3\nvalue = [4, 0]"] ;
189 -> 190 ;
191 [label="gini = 0.5\nsamples = 3\nvalue = [3, 2]"] ;
189 -> 191 ;
192 [label="total_pages_visited <= 9.5\ngini = 0.0\nsamples = 321\nvalue = [488, 5]"] ;
176 -> 192 ;
193 [label="total_pages_visited <= 5.5\ngini = 0.0\nsamples = 305\nvalue = [465, 3]"] ;
192 -> 193 ;
194 [label="gini = 0.0\nsamples = 221\nvalue = [344, 0]"] ;
193 -> 194 ;
195 [label="total_pages_visited <= 7.5\ngini = 0.0\nsamples = 84\nvalue = [121, 3]"] ;
193 -> 195 ;
196 [label="total_pages_visited <= 6.5\ngini = 0.1\nsamples = 61\nvalue = [89, 3]"] ;
195 -> 196 ;
197 [label="gini = 0.0\nsamples = 37\nvalue = [56, 1]"] ;
196 -> 197 ;
198 [label="gini = 0.1\nsamples = 24\nvalue = [33, 2]"] ;
196 -> 198 ;
199 [label="gini = 0.0\nsamples = 23\nvalue = [32, 0]"] ;
195 -> 199 ;
200 [label="total_pages_visited <= 10.5\ngini = 0.1\nsamples = 16\nvalue = [23, 2]"] ;
192 -> 200 ;
201 [label="gini = 0.2\nsamples = 11\nvalue = [17, 2]"] ;
200 -> 201 ;
202 [label="gini = 0.0\nsamples = 5\nvalue = [6, 0]"] ;
200 -> 202 ;
203 [label="age <= 26.5\ngini = 0.0\nsamples = 1038\nvalue = [1598, 7]"] ;
175 -> 203 ;
204 [label="total_pages_visited <= 8.5\ngini = 0.0\nsamples = 350\nvalue = [562, 3]"] ;
203 -> 204 ;
205 [label="total_pages_visited <= 6.5\ngini = 0.0\nsamples = 318\nvalue = [511, 1]"] ;
204 -> 205 ;
206 [label="gini = 0.0\nsamples = 271\nvalue = [431, 0]"] ;
205 -> 206 ;
207 [label="total_pages_visited <= 7.5\ngini = 0.0\nsamples = 47\nvalue = [80, 1]"] ;
205 -> 207 ;
208 [label="gini = 0.0\nsamples = 28\nvalue = [51, 1]"] ;
207 -> 208 ;
209 [label="gini = 0.0\nsamples = 19\nvalue = [29, 0]"] ;
207 -> 209 ;
210 [label="total_pages_visited <= 9.5\ngini = 0.1\nsamples = 32\nvalue = [51, 2]"] ;
204 -> 210 ;
211 [label="gini = 0.1\nsamples = 17\nvalue = [24, 2]"] ;
210 -> 211 ;
212 [label="gini = 0.0\nsamples = 15\nvalue = [27, 0]"] ;
210 -> 212 ;
213 [label="age <= 27.5\ngini = 0.0\nsamples = 688\nvalue = [1036, 4]"] ;
203 -> 213 ;
214 [label="total_pages_visited <= 8.5\ngini = 0.0\nsamples = 341\nvalue = [527, 2]"] ;
213 -> 214 ;
215 [label="gini = 0.0\nsamples = 316\nvalue = [487, 0]"] ;
214 -> 215 ;
216 [label="total_pages_visited <= 9.5\ngini = 0.1\nsamples = 25\nvalue = [40, 2]"] ;
214 -> 216 ;
217 [label="gini = 0.2\nsamples = 11\nvalue = [16, 2]"] ;
216 -> 217 ;
218 [label="gini = 0.0\nsamples = 14\nvalue = [24, 0]"] ;
216 -> 218 ;
219 [label="total_pages_visited <= 9.5\ngini = 0.0\nsamples = 347\nvalue = [509, 2]"] ;
213 -> 219 ;
220 [label="gini = 0.0\nsamples = 331\nvalue = [490, 0]"] ;
219 -> 220 ;
221 [label="total_pages_visited <= 10.5\ngini = 0.2\nsamples = 16\nvalue = [19, 2]"] ;
219 -> 221 ;
222 [label="gini = 0.4\nsamples = 3\nvalue = [3, 1]"] ;
221 -> 222 ;
223 [label="total_pages_visited <= 11.5\ngini = 0.1\nsamples = 13\nvalue = [16, 1]"] ;
221 -> 223 ;
224 [label="gini = 0.2\nsamples = 8\nvalue = [11, 1]"] ;
223 -> 224 ;
225 [label="gini = 0.0\nsamples = 5\nvalue = [5, 0]"] ;
223 -> 225 ;
226 [label="age <= 24.0\ngini = 0.5\nsamples = 14\nvalue = [13, 8]"] ;
174 -> 226 ;
227 [label="gini = 0.4\nsamples = 2\nvalue = [1, 2]"] ;
226 -> 227 ;
228 [label="age <= 25.5\ngini = 0.4\nsamples = 12\nvalue = [12, 6]"] ;
226 -> 228 ;
229 [label="gini = 0.0\nsamples = 2\nvalue = [5, 0]"] ;
228 -> 229 ;
230 [label="age <= 26.5\ngini = 0.5\nsamples = 10\nvalue = [7, 6]"] ;
228 -> 230 ;
231 [label="gini = 0.4\nsamples = 3\nvalue = [2, 1]"] ;
230 -> 231 ;
232 [label="age <= 27.5\ngini = 0.5\nsamples = 7\nvalue = [5, 5]"] ;
230 -> 232 ;
233 [label="gini = 0.5\nsamples = 5\nvalue = [3, 4]"] ;
232 -> 233 ;
234 [label="gini = 0.4\nsamples = 2\nvalue = [2, 1]"] ;
232 -> 234 ;
235 [label="total_pages_visited <= 12.5\ngini = 0.0\nsamples = 682\nvalue = [1048, 13]"] ;
173 -> 235 ;
236 [label="age <= 29.5\ngini = 0.0\nsamples = 678\nvalue = [1044, 9]"] ;
235 -> 236 ;
237 [label="total_pages_visited <= 8.5\ngini = 0.0\nsamples = 329\nvalue = [503, 5]"] ;
236 -> 237 ;
238 [label="total_pages_visited <= 7.5\ngini = 0.0\nsamples = 298\nvalue = [463, 1]"] ;
237 -> 238 ;
239 [label="gini = 0.0\nsamples = 279\nvalue = [436, 0]"] ;
238 -> 239 ;
240 [label="gini = 0.1\nsamples = 19\nvalue = [27, 1]"] ;
238 -> 240 ;
241 [label="total_pages_visited <= 11.5\ngini = 0.2\nsamples = 31\nvalue = [40, 4]"] ;
237 -> 241 ;
242 [label="total_pages_visited <= 10.5\ngini = 0.2\nsamples = 29\nvalue = [37, 4]"] ;
241 -> 242 ;
243 [label="total_pages_visited <= 9.5\ngini = 0.2\nsamples = 23\nvalue = [31, 3]"] ;
242 -> 243 ;
244 [label="gini = 0.2\nsamples = 13\nvalue = [18, 2]"] ;
243 -> 244 ;
245 [label="gini = 0.1\nsamples = 10\nvalue = [13, 1]"] ;
243 -> 245 ;
246 [label="gini = 0.2\nsamples = 6\nvalue = [6, 1]"] ;
242 -> 246 ;
247 [label="gini = 0.0\nsamples = 2\nvalue = [3, 0]"] ;
241 -> 247 ;
248 [label="total_pages_visited <= 11.5\ngini = 0.0\nsamples = 349\nvalue = [541, 4]"] ;
236 -> 248 ;
249 [label="total_pages_visited <= 7.5\ngini = 0.0\nsamples = 344\nvalue = [535, 2]"] ;
248 -> 249 ;
250 [label="gini = 0.0\nsamples = 296\nvalue = [460, 0]"] ;
249 -> 250 ;
251 [label="total_pages_visited <= 8.5\ngini = 0.1\nsamples = 48\nvalue = [75, 2]"] ;
249 -> 251 ;
252 [label="gini = 0.1\nsamples = 18\nvalue = [24, 2]"] ;
251 -> 252 ;
253 [label="gini = 0.0\nsamples = 30\nvalue = [51, 0]"] ;
251 -> 253 ;
254 [label="gini = 0.4\nsamples = 5\nvalue = [6, 2]"] ;
248 -> 254 ;
255 [label="age <= 29.5\ngini = 0.5\nsamples = 4\nvalue = [4, 4]"] ;
235 -> 255 ;
256 [label="gini = 0.0\nsamples = 1\nvalue = [0, 3]"] ;
255 -> 256 ;
257 [label="gini = 0.3\nsamples = 3\nvalue = [4, 1]"] ;
255 -> 257 ;
258 [label="total_pages_visited <= 10.5\ngini = 0.0\nsamples = 310\nvalue = [483, 2]"] ;
172 -> 258 ;
259 [label="gini = 0.0\nsamples = 297\nvalue = [469, 0]"] ;
258 -> 259 ;
260 [label="total_pages_visited <= 11.5\ngini = 0.2\nsamples = 13\nvalue = [14, 2]"] ;
258 -> 260 ;
261 [label="gini = 0.3\nsamples = 8\nvalue = [8, 2]"] ;
260 -> 261 ;
262 [label="gini = 0.0\nsamples = 5\nvalue = [6, 0]"] ;
260 -> 262 ;
263 [label="total_pages_visited <= 11.5\ngini = 0.0\nsamples = 354\nvalue = [564, 8]"] ;
171 -> 263 ;
264 [label="total_pages_visited <= 9.5\ngini = 0.0\nsamples = 343\nvalue = [556, 3]"] ;
263 -> 264 ;
265 [label="gini = 0.0\nsamples = 327\nvalue = [526, 0]"] ;
264 -> 265 ;
266 [label="total_pages_visited <= 10.5\ngini = 0.2\nsamples = 16\nvalue = [30, 3]"] ;
264 -> 266 ;
267 [label="gini = 0.3\nsamples = 10\nvalue = [14, 3]"] ;
266 -> 267 ;
268 [label="gini = 0.0\nsamples = 6\nvalue = [16, 0]"] ;
266 -> 268 ;
269 [label="total_pages_visited <= 12.5\ngini = 0.5\nsamples = 11\nvalue = [8, 5]"] ;
263 -> 269 ;
270 [label="gini = 0.4\nsamples = 6\nvalue = [5, 2]"] ;
269 -> 270 ;
271 [label="gini = 0.5\nsamples = 5\nvalue = [3, 3]"] ;
269 -> 271 ;
272 [label="total_pages_visited <= 10.5\ngini = 0.0\nsamples = 4861\nvalue = [7772, 18]"] ;
6 -> 272 ;
273 [label="source_Seo <= 0.5\ngini = 0.0\nsamples = 4693\nvalue = [7532, 2]"] ;
272 -> 273 ;
274 [label="gini = 0.0\nsamples = 1656\nvalue = [2675, 0]"] ;
273 -> 274 ;
275 [label="total_pages_visited <= 7.5\ngini = 0.0\nsamples = 3037\nvalue = [4857, 2]"] ;
273 -> 275 ;
276 [label="gini = 0.0\nsamples = 2653\nvalue = [4232, 0]"] ;
275 -> 276 ;
277 [label="age <= 34.5\ngini = 0.0\nsamples = 384\nvalue = [625, 2]"] ;
275 -> 277 ;
278 [label="total_pages_visited <= 9.5\ngini = 0.0\nsamples = 84\nvalue = [139, 2]"] ;
277 -> 278 ;
279 [label="total_pages_visited <= 8.5\ngini = 0.0\nsamples = 66\nvalue = [113, 2]"] ;
278 -> 279 ;
280 [label="age <= 33.5\ngini = 0.0\nsamples = 43\nvalue = [73, 1]"] ;
279 -> 280 ;
281 [label="gini = 0.1\nsamples = 22\nvalue = [36, 1]"] ;
280 -> 281 ;
282 [label="gini = 0.0\nsamples = 21\nvalue = [37, 0]"] ;
280 -> 282 ;
283 [label="age <= 33.5\ngini = 0.0\nsamples = 23\nvalue = [40, 1]"] ;
279 -> 283 ;
284 [label="gini = 0.0\nsamples = 10\nvalue = [18, 0]"] ;
283 -> 284 ;
285 [label="gini = 0.1\nsamples = 13\nvalue = [22, 1]"] ;
283 -> 285 ;
286 [label="gini = 0.0\nsamples = 18\nvalue = [26, 0]"] ;
278 -> 286 ;
287 [label="gini = 0.0\nsamples = 300\nvalue = [486, 0]"] ;
277 -> 287 ;
288 [label="age <= 40.5\ngini = 0.1\nsamples = 168\nvalue = [240, 16]"] ;
272 -> 288 ;
289 [label="age <= 37.5\ngini = 0.1\nsamples = 113\nvalue = [172, 6]"] ;
288 -> 289 ;
290 [label="source_Ads <= 0.5\ngini = 0.0\nsamples = 80\nvalue = [123, 3]"] ;
289 -> 290 ;
291 [label="age <= 33.5\ngini = 0.1\nsamples = 48\nvalue = [72, 2]"] ;
290 -> 291 ;
292 [label="total_pages_visited <= 11.5\ngini = 0.2\nsamples = 8\nvalue = [11, 1]"] ;
291 -> 292 ;
293 [label="gini = 0.0\nsamples = 4\nvalue = [8, 0]"] ;
292 -> 293 ;
294 [label="total_pages_visited <= 12.5\ngini = 0.4\nsamples = 4\nvalue = [3, 1]"] ;
292 -> 294 ;
295 [label="gini = 0.4\nsamples = 3\nvalue = [2, 1]"] ;
294 -> 295 ;
296 [label="gini = 0.0\nsamples = 1\nvalue = [1, 0]"] ;
294 -> 296 ;
297 [label="age <= 35.5\ngini = 0.0\nsamples = 40\nvalue = [61, 1]"] ;
291 -> 297 ;
298 [label="gini = 0.0\nsamples = 20\nvalue = [31, 0]"] ;
297 -> 298 ;
299 [label="age <= 36.5\ngini = 0.1\nsamples = 20\nvalue = [30, 1]"] ;
297 -> 299 ;
300 [label="total_pages_visited <= 12.5\ngini = 0.1\nsamples = 9\nvalue = [12, 1]"] ;
299 -> 300 ;
301 [label="gini = 0.0\nsamples = 5\nvalue = [9, 0]"] ;
300 -> 301 ;
302 [label="gini = 0.4\nsamples = 4\nvalue = [3, 1]"] ;
300 -> 302 ;
303 [label="gini = 0.0\nsamples = 11\nvalue = [18, 0]"] ;
299 -> 303 ;
304 [label="total_pages_visited <= 11.5\ngini = 0.0\nsamples = 32\nvalue = [51, 1]"] ;
290 -> 304 ;
305 [label="gini = 0.0\nsamples = 20\nvalue = [29, 0]"] ;
304 -> 305 ;
306 [label="total_pages_visited <= 12.5\ngini = 0.1\nsamples = 12\nvalue = [22, 1]"] ;
304 -> 306 ;
307 [label="age <= 34.5\ngini = 0.1\nsamples = 8\nvalue = [15, 1]"] ;
306 -> 307 ;
308 [label="gini = 0.0\nsamples = 4\nvalue = [8, 0]"] ;
307 -> 308 ;
309 [label="age <= 36.0\ngini = 0.2\nsamples = 4\nvalue = [7, 1]"] ;
307 -> 309 ;
310 [label="gini = 0.5\nsamples = 2\nvalue = [1, 1]"] ;
309 -> 310 ;
311 [label="gini = 0.0\nsamples = 2\nvalue = [6, 0]"] ;
309 -> 311 ;
312 [label="gini = 0.0\nsamples = 4\nvalue = [7, 0]"] ;
306 -> 312 ;
313 [label="source_Seo <= 0.5\ngini = 0.1\nsamples = 33\nvalue = [49, 3]"] ;
289 -> 313 ;
314 [label="age <= 39.5\ngini = 0.1\nsamples = 17\nvalue = [24, 1]"] ;
313 -> 314 ;
315 [label="age <= 38.5\ngini = 0.1\nsamples = 11\nvalue = [15, 1]"] ;
314 -> 315 ;
316 [label="gini = 0.0\nsamples = 3\nvalue = [5, 0]"] ;
315 -> 316 ;
317 [label="total_pages_visited <= 11.5\ngini = 0.2\nsamples = 8\nvalue = [10, 1]"] ;
315 -> 317 ;
318 [label="gini = 0.3\nsamples = 4\nvalue = [5, 1]"] ;
317 -> 318 ;
319 [label="gini = 0.0\nsamples = 4\nvalue = [5, 0]"] ;
317 -> 319 ;
320 [label="gini = 0.0\nsamples = 6\nvalue = [9, 0]"] ;
314 -> 320 ;
321 [label="age <= 38.5\ngini = 0.1\nsamples = 16\nvalue = [25, 2]"] ;
313 -> 321 ;
322 [label="total_pages_visited <= 11.5\ngini = 0.3\nsamples = 7\nvalue = [11, 2]"] ;
321 -> 322 ;
323 [label="gini = 0.0\nsamples = 3\nvalue = [5, 0]"] ;
322 -> 323 ;
324 [label="gini = 0.4\nsamples = 4\nvalue = [6, 2]"] ;
322 -> 324 ;
325 [label="gini = 0.0\nsamples = 9\nvalue = [14, 0]"] ;
321 -> 325 ;
326 [label="age <= 50.5\ngini = 0.2\nsamples = 55\nvalue = [68, 10]"] ;
288 -> 326 ;
327 [label="source_Seo <= 0.5\ngini = 0.2\nsamples = 47\nvalue = [60, 10]"] ;
326 -> 327 ;
328 [label="total_pages_visited <= 12.5\ngini = 0.2\nsamples = 20\nvalue = [24, 3]"] ;
327 -> 328 ;
329 [label="age <= 45.5\ngini = 0.2\nsamples = 15\nvalue = [18, 3]"] ;
328 -> 329 ;
330 [label="age <= 43.5\ngini = 0.2\nsamples = 10\nvalue = [11, 1]"] ;
329 -> 330 ;
331 [label="age <= 42.5\ngini = 0.3\nsamples = 5\nvalue = [5, 1]"] ;
330 -> 331 ;
332 [label="gini = 0.0\nsamples = 2\nvalue = [3, 0]"] ;
331 -> 332 ;
333 [label="total_pages_visited <= 11.5\ngini = 0.4\nsamples = 3\nvalue = [2, 1]"] ;
331 -> 333 ;
334 [label="gini = 0.0\nsamples = 2\nvalue = [2, 0]"] ;
333 -> 334 ;
335 [label="gini = 0.0\nsamples = 1\nvalue = [0, 1]"] ;
333 -> 335 ;
336 [label="gini = 0.0\nsamples = 5\nvalue = [6, 0]"] ;
330 -> 336 ;
337 [label="total_pages_visited <= 11.5\ngini = 0.3\nsamples = 5\nvalue = [7, 2]"] ;
329 -> 337 ;
338 [label="age <= 47.5\ngini = 0.4\nsamples = 2\nvalue = [3, 1]"] ;
337 -> 338 ;
339 [label="gini = 0.0\nsamples = 1\nvalue = [0, 1]"] ;
338 -> 339 ;
340 [label="gini = 0.0\nsamples = 1\nvalue = [3, 0]"] ;
338 -> 340 ;
341 [label="age <= 46.5\ngini = 0.3\nsamples = 3\nvalue = [4, 1]"] ;
337 -> 341 ;
342 [label="gini = 0.0\nsamples = 1\nvalue = [2, 0]"] ;
341 -> 342 ;
343 [label="gini = 0.4\nsamples = 2\nvalue = [2, 1]"] ;
341 -> 343 ;
344 [label="gini = 0.0\nsamples = 5\nvalue = [6, 0]"] ;
328 -> 344 ;
345 [label="age <= 49.5\ngini = 0.3\nsamples = 27\nvalue = [36, 7]"] ;
327 -> 345 ;
346 [label="age <= 46.5\ngini = 0.2\nsamples = 26\nvalue = [36, 5]"] ;
345 -> 346 ;
347 [label="total_pages_visited <= 12.5\ngini = 0.3\nsamples = 21\nvalue = [26, 5]"] ;
346 -> 347 ;
348 [label="age <= 45.5\ngini = 0.3\nsamples = 16\nvalue = [20, 5]"] ;
347 -> 348 ;
349 [label="total_pages_visited <= 11.5\ngini = 0.3\nsamples = 13\nvalue = [17, 3]"] ;
348 -> 349 ;
350 [label="age <= 42.0\ngini = 0.2\nsamples = 10\nvalue = [14, 2]"] ;
349 -> 350 ;
351 [label="gini = 0.3\nsamples = 6\nvalue = [7, 2]"] ;
350 -> 351 ;
352 [label="gini = 0.0\nsamples = 4\nvalue = [7, 0]"] ;
350 -> 352 ;
353 [label="age <= 42.5\ngini = 0.4\nsamples = 3\nvalue = [3, 1]"] ;
349 -> 353 ;
354 [label="gini = 0.0\nsamples = 1\nvalue = [1, 0]"] ;
353 -> 354 ;
355 [label="gini = 0.4\nsamples = 2\nvalue = [2, 1]"] ;
353 -> 355 ;
356 [label="total_pages_visited <= 11.5\ngini = 0.5\nsamples = 3\nvalue = [3, 2]"] ;
348 -> 356 ;
357 [label="gini = 0.4\nsamples = 2\nvalue = [1, 2]"] ;
356 -> 357 ;
358 [label="gini = 0.0\nsamples = 1\nvalue = [2, 0]"] ;
356 -> 358 ;
359 [label="gini = 0.0\nsamples = 5\nvalue = [6, 0]"] ;
347 -> 359 ;
360 [label="gini = 0.0\nsamples = 5\nvalue = [10, 0]"] ;
346 -> 360 ;
361 [label="gini = 0.0\nsamples = 1\nvalue = [0, 2]"] ;
345 -> 361 ;
362 [label="gini = 0.0\nsamples = 8\nvalue = [8, 0]"] ;
326 -> 362 ;
363 [label="source_Ads <= 0.5\ngini = 0.0\nsamples = 46573\nvalue = [73137, 465]"] ;
5 -> 363 ;
364 [label="total_pages_visited <= 11.5\ngini = 0.0\nsamples = 29570\nvalue = [46477, 285]"] ;
363 -> 364 ;
365 [label="age <= 23.5\ngini = 0.0\nsamples = 29065\nvalue = [45828, 139]"] ;
364 -> 365 ;
366 [label="age <= 17.5\ngini = 0.0\nsamples = 6307\nvalue = [9879, 47]"] ;
365 -> 366 ;
367 [label="total_pages_visited <= 9.5\ngini = 0.0\nsamples = 682\nvalue = [1074, 9]"] ;
366 -> 367 ;
368 [label="total_pages_visited <= 5.5\ngini = 0.0\nsamples = 652\nvalue = [1029, 3]"] ;
367 -> 368 ;
369 [label="gini = 0.0\nsamples = 458\nvalue = [721, 0]"] ;
368 -> 369 ;
370 [label="total_pages_visited <= 7.5\ngini = 0.0\nsamples = 194\nvalue = [308, 3]"] ;
368 -> 370 ;
371 [label="total_pages_visited <= 6.5\ngini = 0.0\nsamples = 120\nvalue = [189, 3]"] ;
370 -> 371 ;
372 [label="gini = 0.0\nsamples = 62\nvalue = [95, 1]"] ;
371 -> 372 ;
373 [label="gini = 0.0\nsamples = 58\nvalue = [94, 2]"] ;
371 -> 373 ;
374 [label="gini = 0.0\nsamples = 74\nvalue = [119, 0]"] ;
370 -> 374 ;
375 [label="total_pages_visited <= 10.5\ngini = 0.2\nsamples = 30\nvalue = [45, 6]"] ;
367 -> 375 ;
376 [label="gini = 0.2\nsamples = 20\nvalue = [32, 5]"] ;
375 -> 376 ;
377 [label="gini = 0.1\nsamples = 10\nvalue = [13, 1]"] ;
375 -> 377 ;
378 [label="total_pages_visited <= 9.5\ngini = 0.0\nsamples = 5625\nvalue = [8805, 38]"] ;
366 -> 378 ;
379 [label="age <= 18.5\ngini = 0.0\nsamples = 5387\nvalue = [8446, 18]"] ;
378 -> 379 ;
380 [label="total_pages_visited <= 8.5\ngini = 0.0\nsamples = 696\nvalue = [1076, 4]"] ;
379 -> 380 ;
381 [label="total_pages_visited <= 5.5\ngini = 0.0\nsamples = 672\nvalue = [1038, 1]"] ;
380 -> 381 ;
382 [label="gini = 0.0\nsamples = 520\nvalue = [806, 0]"] ;
381 -> 382 ;
383 [label="total_pages_visited <= 6.5\ngini = 0.0\nsamples = 152\nvalue = [232, 1]"] ;
381 -> 383 ;
384 [label="gini = 0.0\nsamples = 73\nvalue = [114, 1]"] ;
383 -> 384 ;
385 [label="gini = 0.0\nsamples = 79\nvalue = [118, 0]"] ;
383 -> 385 ;
386 [label="gini = 0.1\nsamples = 24\nvalue = [38, 3]"] ;
380 -> 386 ;
387 [label="age <= 20.5\ngini = 0.0\nsamples = 4691\nvalue = [7370, 14]"] ;
379 -> 387 ;
388 [label="total_pages_visited <= 5.5\ngini = 0.0\nsamples = 1665\nvalue = [2574, 6]"] ;
387 -> 388 ;
389 [label="gini = 0.0\nsamples = 1176\nvalue = [1817, 0]"] ;
388 -> 389 ;
390 [label="age <= 19.5\ngini = 0.0\nsamples = 489\nvalue = [757, 6]"] ;
388 -> 390 ;
391 [label="total_pages_visited <= 6.5\ngini = 0.0\nsamples = 233\nvalue = [378, 2]"] ;
390 -> 391 ;
392 [label="gini = 0.0\nsamples = 77\nvalue = [117, 2]"] ;
391 -> 392 ;
393 [label="gini = 0.0\nsamples = 156\nvalue = [261, 0]"] ;
391 -> 393 ;
394 [label="total_pages_visited <= 7.5\ngini = 0.0\nsamples = 256\nvalue = [379, 4]"] ;
390 -> 394 ;
395 [label="total_pages_visited <= 6.5\ngini = 0.0\nsamples = 156\nvalue = [234, 1]"] ;
394 -> 395 ;
396 [label="gini = 0.0\nsamples = 85\nvalue = [132, 0]"] ;
395 -> 396 ;
397 [label="gini = 0.0\nsamples = 71\nvalue = [102, 1]"] ;
395 -> 397 ;
398 [label="total_pages_visited <= 8.5\ngini = 0.0\nsamples = 100\nvalue = [145, 3]"] ;
394 -> 398 ;
399 [label="gini = 0.0\nsamples = 61\nvalue = [88, 2]"] ;
398 -> 399 ;
400 [label="gini = 0.0\nsamples = 39\nvalue = [57, 1]"] ;
398 -> 400 ;
401 [label="total_pages_visited <= 4.5\ngini = 0.0\nsamples = 3026\nvalue = [4796, 8]"] ;
387 -> 401 ;
402 [label="age <= 22.5\ngini = 0.0\nsamples = 1776\nvalue = [2813, 1]"] ;
401 -> 402 ;
403 [label="total_pages_visited <= 3.5\ngini = 0.0\nsamples = 1162\nvalue = [1841, 1]"] ;
402 -> 403 ;
404 [label="gini = 0.0\nsamples = 866\nvalue = [1365, 0]"] ;
403 -> 404 ;
405 [label="age <= 21.5\ngini = 0.0\nsamples = 296\nvalue = [476, 1]"] ;
403 -> 405 ;
406 [label="gini = 0.0\nsamples = 122\nvalue = [200, 0]"] ;
405 -> 406 ;
407 [label="gini = 0.0\nsamples = 174\nvalue = [276, 1]"] ;
405 -> 407 ;
408 [label="gini = 0.0\nsamples = 614\nvalue = [972, 0]"] ;
402 -> 408 ;
409 [label="total_pages_visited <= 6.5\ngini = 0.0\nsamples = 1250\nvalue = [1983, 7]"] ;
401 -> 409 ;
410 [label="age <= 21.5\ngini = 0.0\nsamples = 713\nvalue = [1157, 3]"] ;
409 -> 410 ;
411 [label="total_pages_visited <= 5.5\ngini = 0.0\nsamples = 216\nvalue = [341, 2]"] ;
410 -> 411 ;
412 [label="gini = 0.0\nsamples = 120\nvalue = [177, 2]"] ;
411 -> 412 ;
413 [label="gini = 0.0\nsamples = 96\nvalue = [164, 0]"] ;
411 -> 413 ;
414 [label="total_pages_visited <= 5.5\ngini = 0.0\nsamples = 497\nvalue = [816, 1]"] ;
410 -> 414 ;
415 [label="age <= 22.5\ngini = 0.0\nsamples = 285\nvalue = [467, 1]"] ;
414 -> 415 ;
416 [label="gini = 0.0\nsamples = 142\nvalue = [224, 1]"] ;
415 -> 416 ;
417 [label="gini = 0.0\nsamples = 143\nvalue = [243, 0]"] ;
415 -> 417 ;
418 [label="gini = 0.0\nsamples = 212\nvalue = [349, 0]"] ;
414 -> 418 ;
419 [label="age <= 22.5\ngini = 0.0\nsamples = 537\nvalue = [826, 4]"] ;
409 -> 419 ;
420 [label="age <= 21.5\ngini = 0.0\nsamples = 320\nvalue = [496, 1]"] ;
419 -> 420 ;
421 [label="gini = 0.0\nsamples = 156\nvalue = [245, 0]"] ;
420 -> 421 ;
422 [label="total_pages_visited <= 7.5\ngini = 0.0\nsamples = 164\nvalue = [251, 1]"] ;
420 -> 422 ;
423 [label="gini = 0.0\nsamples = 73\nvalue = [117, 0]"] ;
422 -> 423 ;
424 [label="total_pages_visited <= 8.5\ngini = 0.0\nsamples = 91\nvalue = [134, 1]"] ;
422 -> 424 ;
425 [label="gini = 0.0\nsamples = 59\nvalue = [86, 1]"] ;
424 -> 425 ;
426 [label="gini = 0.0\nsamples = 32\nvalue = [48, 0]"] ;
424 -> 426 ;
427 [label="total_pages_visited <= 7.5\ngini = 0.0\nsamples = 217\nvalue = [330, 3]"] ;
419 -> 427 ;
428 [label="gini = 0.0\nsamples = 90\nvalue = [144, 2]"] ;
427 -> 428 ;
429 [label="total_pages_visited <= 8.5\ngini = 0.0\nsamples = 127\nvalue = [186, 1]"] ;
427 -> 429 ;
430 [label="gini = 0.0\nsamples = 70\nvalue = [101, 0]"] ;
429 -> 430 ;
431 [label="gini = 0.0\nsamples = 57\nvalue = [85, 1]"] ;
429 -> 431 ;
432 [label="age <= 21.5\ngini = 0.1\nsamples = 238\nvalue = [359, 20]"] ;
378 -> 432 ;
433 [label="total_pages_visited <= 10.5\ngini = 0.1\nsamples = 142\nvalue = [209, 8]"] ;
432 -> 433 ;
434 [label="age <= 18.5\ngini = 0.1\nsamples = 83\nvalue = [127, 5]"] ;
433 -> 434 ;
435 [label="gini = 0.2\nsamples = 16\nvalue = [19, 2]"] ;
434 -> 435 ;
436 [label="age <= 19.5\ngini = 0.1\nsamples = 67\nvalue = [108, 3]"] ;
434 -> 436 ;
437 [label="gini = 0.0\nsamples = 23\nvalue = [40, 0]"] ;
436 -> 437 ;
438 [label="age <= 20.5\ngini = 0.1\nsamples = 44\nvalue = [68, 3]"] ;
436 -> 438 ;
439 [label="gini = 0.1\nsamples = 21\nvalue = [32, 1]"] ;
438 -> 439 ;
440 [label="gini = 0.1\nsamples = 23\nvalue = [36, 2]"] ;
438 -> 440 ;
441 [label="age <= 19.5\ngini = 0.1\nsamples = 59\nvalue = [82, 3]"] ;
433 -> 441 ;
442 [label="age <= 18.5\ngini = 0.2\nsamples = 25\nvalue = [30, 3]"] ;
441 -> 442 ;
443 [label="gini = 0.0\nsamples = 9\nvalue = [11, 0]"] ;
442 -> 443 ;
444 [label="gini = 0.2\nsamples = 16\nvalue = [19, 3]"] ;
442 -> 444 ;
445 [label="gini = 0.0\nsamples = 34\nvalue = [52, 0]"] ;
441 -> 445 ;
446 [label="total_pages_visited <= 10.5\ngini = 0.1\nsamples = 96\nvalue = [150, 12]"] ;
432 -> 446 ;
447 [label="age <= 22.5\ngini = 0.1\nsamples = 58\nvalue = [91, 6]"] ;
446 -> 447 ;
448 [label="gini = 0.2\nsamples = 28\nvalue = [41, 4]"] ;
447 -> 448 ;
449 [label="gini = 0.1\nsamples = 30\nvalue = [50, 2]"] ;
447 -> 449 ;
450 [label="age <= 22.5\ngini = 0.2\nsamples = 38\nvalue = [59, 6]"] ;
446 -> 450 ;
451 [label="gini = 0.1\nsamples = 21\nvalue = [34, 3]"] ;
450 -> 451 ;
452 [label="gini = 0.2\nsamples = 17\nvalue = [25, 3]"] ;
450 -> 452 ;
453 [label="total_pages_visited <= 8.5\ngini = 0.0\nsamples = 22758\nvalue = [35949, 92]"] ;
365 -> 453 ;
454 [label="total_pages_visited <= 5.5\ngini = 0.0\nsamples = 20912\nvalue = [33134, 14]"] ;
453 -> 454 ;
455 [label="total_pages_visited <= 3.5\ngini = 0.0\nsamples = 15426\nvalue = [24475, 2]"] ;
454 -> 455 ;
456 [label="gini = 0.0\nsamples = 9735\nvalue = [15498, 0]"] ;
455 -> 456 ;
457 [label="total_pages_visited <= 4.5\ngini = 0.0\nsamples = 5691\nvalue = [8977, 2]"] ;
455 -> 457 ;
458 [label="age <= 25.5\ngini = 0.0\nsamples = 3053\nvalue = [4770, 2]"] ;
457 -> 458 ;
459 [label="age <= 24.5\ngini = 0.0\nsamples = 302\nvalue = [482, 2]"] ;
458 -> 459 ;
460 [label="gini = 0.0\nsamples = 148\nvalue = [244, 0]"] ;
459 -> 460 ;
461 [label="gini = 0.0\nsamples = 154\nvalue = [238, 2]"] ;
459 -> 461 ;
462 [label="gini = 0.0\nsamples = 2751\nvalue = [4288, 0]"] ;
458 -> 462 ;
463 [label="gini = 0.0\nsamples = 2638\nvalue = [4207, 0]"] ;
457 -> 463 ;
464 [label="total_pages_visited <= 6.5\ngini = 0.0\nsamples = 5486\nvalue = [8659, 12]"] ;
454 -> 464 ;
465 [label="age <= 38.5\ngini = 0.0\nsamples = 2338\nvalue = [3729, 7]"] ;
464 -> 465 ;
466 [label="age <= 33.5\ngini = 0.0\nsamples = 1771\nvalue = [2831, 4]"] ;
465 -> 466 ;
467 [label="age <= 32.5\ngini = 0.0\nsamples = 1245\nvalue = [1976, 4]"] ;
466 -> 467 ;
468 [label="age <= 28.5\ngini = 0.0\nsamples = 1123\nvalue = [1784, 2]"] ;
467 -> 468 ;
469 [label="age <= 26.5\ngini = 0.0\nsamples = 579\nvalue = [909, 2]"] ;
468 -> 469 ;
470 [label="gini = 0.0\nsamples = 340\nvalue = [530, 0]"] ;
469 -> 470 ;
471 [label="age <= 27.5\ngini = 0.0\nsamples = 239\nvalue = [379, 2]"] ;
469 -> 471 ;
472 [label="gini = 0.0\nsamples = 120\nvalue = [190, 1]"] ;
471 -> 472 ;
473 [label="gini = 0.0\nsamples = 119\nvalue = [189, 1]"] ;
471 -> 473 ;
474 [label="gini = 0.0\nsamples = 544\nvalue = [875, 0]"] ;
468 -> 474 ;
475 [label="gini = 0.0\nsamples = 122\nvalue = [192, 2]"] ;
467 -> 475 ;
476 [label="gini = 0.0\nsamples = 526\nvalue = [855, 0]"] ;
466 -> 476 ;
477 [label="age <= 39.5\ngini = 0.0\nsamples = 567\nvalue = [898, 3]"] ;
465 -> 477 ;
478 [label="gini = 0.0\nsamples = 82\nvalue = [130, 2]"] ;
477 -> 478 ;
479 [label="age <= 41.5\ngini = 0.0\nsamples = 485\nvalue = [768, 1]"] ;
477 -> 479 ;
480 [label="age <= 40.5\ngini = 0.0\nsamples = 144\nvalue = [231, 1]"] ;
479 -> 480 ;
481 [label="gini = 0.0\nsamples = 72\nvalue = [118, 0]"] ;
480 -> 481 ;
482 [label="gini = 0.0\nsamples = 72\nvalue = [113, 1]"] ;
480 -> 482 ;
483 [label="gini = 0.0\nsamples = 341\nvalue = [537, 0]"] ;
479 -> 483 ;
484 [label="total_pages_visited <= 7.5\ngini = 0.0\nsamples = 3148\nvalue = [4930, 5]"] ;
464 -> 484 ;
485 [label="age <= 28.5\ngini = 0.0\nsamples = 1802\nvalue = [2821, 3]"] ;
484 -> 485 ;
486 [label="age <= 26.5\ngini = 0.0\nsamples = 492\nvalue = [772, 2]"] ;
485 -> 486 ;
487 [label="gini = 0.0\nsamples = 298\nvalue = [442, 0]"] ;
486 -> 487 ;
488 [label="age <= 27.5\ngini = 0.0\nsamples = 194\nvalue = [330, 2]"] ;
486 -> 488 ;
489 [label="gini = 0.0\nsamples = 87\nvalue = [150, 1]"] ;
488 -> 489 ;
490 [label="gini = 0.0\nsamples = 107\nvalue = [180, 1]"] ;
488 -> 490 ;
491 [label="age <= 35.5\ngini = 0.0\nsamples = 1310\nvalue = [2049, 1]"] ;
485 -> 491 ;
492 [label="gini = 0.0\nsamples = 706\nvalue = [1089, 0]"] ;
491 -> 492 ;
493 [label="age <= 36.5\ngini = 0.0\nsamples = 604\nvalue = [960, 1]"] ;
491 -> 493 ;
494 [label="gini = 0.0\nsamples = 78\nvalue = [122, 1]"] ;
493 -> 494 ;
495 [label="gini = 0.0\nsamples = 526\nvalue = [838, 0]"] ;
493 -> 495 ;
496 [label="age <= 33.5\ngini = 0.0\nsamples = 1346\nvalue = [2109, 2]"] ;
484 -> 496 ;
497 [label="gini = 0.0\nsamples = 736\nvalue = [1167, 0]"] ;
496 -> 497 ;
498 [label="age <= 34.5\ngini = 0.0\nsamples = 610\nvalue = [942, 2]"] ;
496 -> 498 ;
499 [label="gini = 0.0\nsamples = 75\nvalue = [111, 1]"] ;
498 -> 499 ;
500 [label="age <= 38.5\ngini = 0.0\nsamples = 535\nvalue = [831, 1]"] ;
498 -> 500 ;
501 [label="age <= 37.5\ngini = 0.0\nsamples = 233\nvalue = [355, 1]"] ;
500 -> 501 ;
502 [label="gini = 0.0\nsamples = 184\nvalue = [284, 0]"] ;
501 -> 502 ;
503 [label="gini = 0.0\nsamples = 49\nvalue = [71, 1]"] ;
501 -> 503 ;
504 [label="gini = 0.0\nsamples = 302\nvalue = [476, 0]"] ;
500 -> 504 ;
505 [label="age <= 59.0\ngini = 0.1\nsamples = 1846\nvalue = [2815, 78]"] ;
453 -> 505 ;
506 [label="total_pages_visited <= 10.5\ngini = 0.1\nsamples = 1845\nvalue = [2815, 77]"] ;
505 -> 506 ;
507 [label="total_pages_visited <= 9.5\ngini = 0.0\nsamples = 1445\nvalue = [2209, 42]"] ;
506 -> 507 ;
508 [label="age <= 31.5\ngini = 0.0\nsamples = 877\nvalue = [1333, 21]"] ;
507 -> 508 ;
509 [label="age <= 30.5\ngini = 0.0\nsamples = 403\nvalue = [612, 15]"] ;
508 -> 509 ;
510 [label="age <= 24.5\ngini = 0.0\nsamples = 340\nvalue = [522, 10]"] ;
509 -> 510 ;
511 [label="gini = 0.0\nsamples = 44\nvalue = [72, 0]"] ;
510 -> 511 ;
512 [label="age <= 27.5\ngini = 0.0\nsamples = 296\nvalue = [450, 10]"] ;
510 -> 512 ;
513 [label="age <= 26.5\ngini = 0.1\nsamples = 140\nvalue = [229, 7]"] ;
512 -> 513 ;
514 [label="age <= 25.5\ngini = 0.0\nsamples = 92\nvalue = [158, 4]"] ;
513 -> 514 ;
515 [label="gini = 0.1\nsamples = 47\nvalue = [86, 3]"] ;
514 -> 515 ;
516 [label="gini = 0.0\nsamples = 45\nvalue = [72, 1]"] ;
514 -> 516 ;
517 [label="gini = 0.1\nsamples = 48\nvalue = [71, 3]"] ;
513 -> 517 ;
518 [label="age <= 29.5\ngini = 0.0\nsamples = 156\nvalue = [221, 3]"] ;
512 -> 518 ;
519 [label="age <= 28.5\ngini = 0.0\nsamples = 99\nvalue = [146, 1]"] ;
518 -> 519 ;
520 [label="gini = 0.0\nsamples = 45\nvalue = [66, 1]"] ;
519 -> 520 ;
521 [label="gini = 0.0\nsamples = 54\nvalue = [80, 0]"] ;
519 -> 521 ;
522 [label="gini = 0.1\nsamples = 57\nvalue = [75, 2]"] ;
518 -> 522 ;
523 [label="gini = 0.1\nsamples = 63\nvalue = [90, 5]"] ;
509 -> 523 ;
524 [label="age <= 39.5\ngini = 0.0\nsamples = 474\nvalue = [721, 6]"] ;
508 -> 524 ;
525 [label="age <= 38.5\ngini = 0.0\nsamples = 308\nvalue = [471, 6]"] ;
524 -> 525 ;
526 [label="age <= 36.5\ngini = 0.0\nsamples = 280\nvalue = [427, 4]"] ;
525 -> 526 ;
527 [label="age <= 35.5\ngini = 0.0\nsamples = 217\nvalue = [321, 4]"] ;
526 -> 527 ;
528 [label="age <= 33.5\ngini = 0.0\nsamples = 175\nvalue = [251, 2]"] ;
527 -> 528 ;
529 [label="age <= 32.5\ngini = 0.0\nsamples = 90\nvalue = [139, 2]"] ;
528 -> 529 ;
530 [label="gini = 0.0\nsamples = 48\nvalue = [73, 1]"] ;
529 -> 530 ;
531 [label="gini = 0.0\nsamples = 42\nvalue = [66, 1]"] ;
529 -> 531 ;
532 [label="gini = 0.0\nsamples = 85\nvalue = [112, 0]"] ;
528 -> 532 ;
533 [label="gini = 0.1\nsamples = 42\nvalue = [70, 2]"] ;
527 -> 533 ;
534 [label="gini = 0.0\nsamples = 63\nvalue = [106, 0]"] ;
526 -> 534 ;
535 [label="gini = 0.1\nsamples = 28\nvalue = [44, 2]"] ;
525 -> 535 ;
536 [label="gini = 0.0\nsamples = 166\nvalue = [250, 0]"] ;
524 -> 536 ;
537 [label="age <= 50.5\ngini = 0.0\nsamples = 568\nvalue = [876, 21]"] ;
507 -> 537 ;
538 [label="age <= 32.5\ngini = 0.0\nsamples = 554\nvalue = [856, 19]"] ;
537 -> 538 ;
539 [label="age <= 31.5\ngini = 0.1\nsamples = 286\nvalue = [456, 14]"] ;
538 -> 539 ;
540 [label="age <= 27.5\ngini = 0.0\nsamples = 260\nvalue = [415, 9]"] ;
539 -> 540 ;
541 [label="age <= 24.5\ngini = 0.1\nsamples = 132\nvalue = [210, 8]"] ;
540 -> 541 ;
542 [label="gini = 0.0\nsamples = 30\nvalue = [52, 1]"] ;
541 -> 542 ;
543 [label="age <= 25.5\ngini = 0.1\nsamples = 102\nvalue = [158, 7]"] ;
541 -> 543 ;
544 [label="gini = 0.1\nsamples = 36\nvalue = [54, 3]"] ;
543 -> 544 ;
545 [label="age <= 26.5\ngini = 0.1\nsamples = 66\nvalue = [104, 4]"] ;
543 -> 545 ;
546 [label="gini = 0.1\nsamples = 37\nvalue = [60, 2]"] ;
545 -> 546 ;
547 [label="gini = 0.1\nsamples = 29\nvalue = [44, 2]"] ;
545 -> 547 ;
548 [label="age <= 29.5\ngini = 0.0\nsamples = 128\nvalue = [205, 1]"] ;
540 -> 548 ;
549 [label="gini = 0.0\nsamples = 62\nvalue = [100, 0]"] ;
548 -> 549 ;
550 [label="age <= 30.5\ngini = 0.0\nsamples = 66\nvalue = [105, 1]"] ;
548 -> 550 ;
551 [label="gini = 0.0\nsamples = 36\nvalue = [56, 1]"] ;
550 -> 551 ;
552 [label="gini = 0.0\nsamples = 30\nvalue = [49, 0]"] ;
550 -> 552 ;
553 [label="gini = 0.2\nsamples = 26\nvalue = [41, 5]"] ;
539 -> 553 ;
554 [label="age <= 36.5\ngini = 0.0\nsamples = 268\nvalue = [400, 5]"] ;
538 -> 554 ;
555 [label="gini = 0.0\nsamples = 102\nvalue = [153, 0]"] ;
554 -> 555 ;
556 [label="age <= 37.5\ngini = 0.0\nsamples = 166\nvalue = [247, 5]"] ;
554 -> 556 ;
557 [label="gini = 0.2\nsamples = 19\nvalue = [27, 3]"] ;
556 -> 557 ;
558 [label="age <= 42.5\ngini = 0.0\nsamples = 147\nvalue = [220, 2]"] ;
556 -> 558 ;
559 [label="age <= 41.5\ngini = 0.0\nsamples = 101\nvalue = [154, 2]"] ;
558 -> 559 ;
560 [label="age <= 39.5\ngini = 0.0\nsamples = 84\nvalue = [133, 1]"] ;
559 -> 560 ;
561 [label="age <= 38.5\ngini = 0.0\nsamples = 43\nvalue = [67, 1]"] ;
560 -> 561 ;
562 [label="gini = 0.0\nsamples = 17\nvalue = [29, 0]"] ;
561 -> 562 ;
563 [label="gini = 0.0\nsamples = 26\nvalue = [38, 1]"] ;
561 -> 563 ;
564 [label="gini = 0.0\nsamples = 41\nvalue = [66, 0]"] ;
560 -> 564 ;
565 [label="gini = 0.1\nsamples = 17\nvalue = [21, 1]"] ;
559 -> 565 ;
566 [label="gini = 0.0\nsamples = 46\nvalue = [66, 0]"] ;
558 -> 566 ;
567 [label="age <= 51.5\ngini = 0.2\nsamples = 14\nvalue = [20, 2]"] ;
537 -> 567 ;
568 [label="gini = 0.4\nsamples = 3\nvalue = [4, 2]"] ;
567 -> 568 ;
569 [label="gini = 0.0\nsamples = 11\nvalue = [16, 0]"] ;
567 -> 569 ;
570 [label="age <= 40.5\ngini = 0.1\nsamples = 400\nvalue = [606, 35]"] ;
506 -> 570 ;
571 [label="age <= 38.5\ngini = 0.1\nsamples = 345\nvalue = [525, 27]"] ;
570 -> 571 ;
572 [label="age <= 37.5\ngini = 0.1\nsamples = 323\nvalue = [487, 27]"] ;
571 -> 572 ;
573 [label="age <= 32.5\ngini = 0.1\nsamples = 305\nvalue = [465, 23]"] ;
572 -> 573 ;
574 [label="age <= 29.5\ngini = 0.1\nsamples = 218\nvalue = [328, 20]"] ;
573 -> 574 ;
575 [label="age <= 26.5\ngini = 0.1\nsamples = 144\nvalue = [215, 8]"] ;
574 -> 575 ;
576 [label="age <= 24.5\ngini = 0.1\nsamples = 72\nvalue = [97, 6]"] ;
575 -> 576 ;
577 [label="gini = 0.0\nsamples = 19\nvalue = [27, 0]"] ;
576 -> 577 ;
578 [label="age <= 25.5\ngini = 0.1\nsamples = 53\nvalue = [70, 6]"] ;
576 -> 578 ;
579 [label="gini = 0.1\nsamples = 30\nvalue = [38, 3]"] ;
578 -> 579 ;
580 [label="gini = 0.2\nsamples = 23\nvalue = [32, 3]"] ;
578 -> 580 ;
581 [label="age <= 27.5\ngini = 0.0\nsamples = 72\nvalue = [118, 2]"] ;
575 -> 581 ;
582 [label="gini = 0.0\nsamples = 20\nvalue = [38, 0]"] ;
581 -> 582 ;
583 [label="age <= 28.5\ngini = 0.0\nsamples = 52\nvalue = [80, 2]"] ;
581 -> 583 ;
584 [label="gini = 0.0\nsamples = 25\nvalue = [40, 1]"] ;
583 -> 584 ;
585 [label="gini = 0.0\nsamples = 27\nvalue = [40, 1]"] ;
583 -> 585 ;
586 [label="age <= 30.5\ngini = 0.2\nsamples = 74\nvalue = [113, 12]"] ;
574 -> 586 ;
587 [label="gini = 0.3\nsamples = 28\nvalue = [38, 7]"] ;
586 -> 587 ;
588 [label="age <= 31.5\ngini = 0.1\nsamples = 46\nvalue = [75, 5]"] ;
586 -> 588 ;
589 [label="gini = 0.1\nsamples = 27\nvalue = [42, 2]"] ;
588 -> 589 ;
590 [label="gini = 0.2\nsamples = 19\nvalue = [33, 3]"] ;
588 -> 590 ;
591 [label="age <= 36.5\ngini = 0.0\nsamples = 87\nvalue = [137, 3]"] ;
573 -> 591 ;
592 [label="age <= 35.5\ngini = 0.0\nsamples = 80\nvalue = [127, 3]"] ;
591 -> 592 ;
593 [label="age <= 34.5\ngini = 0.0\nsamples = 65\nvalue = [102, 2]"] ;
592 -> 593 ;
594 [label="age <= 33.5\ngini = 0.1\nsamples = 47\nvalue = [74, 2]"] ;
593 -> 594 ;
595 [label="gini = 0.0\nsamples = 30\nvalue = [47, 1]"] ;
594 -> 595 ;
596 [label="gini = 0.1\nsamples = 17\nvalue = [27, 1]"] ;
594 -> 596 ;
597 [label="gini = 0.0\nsamples = 18\nvalue = [28, 0]"] ;
593 -> 597 ;
598 [label="gini = 0.1\nsamples = 15\nvalue = [25, 1]"] ;
592 -> 598 ;
599 [label="gini = 0.0\nsamples = 7\nvalue = [10, 0]"] ;
591 -> 599 ;
600 [label="gini = 0.3\nsamples = 18\nvalue = [22, 4]"] ;
572 -> 600 ;
601 [label="gini = 0.0\nsamples = 22\nvalue = [38, 0]"] ;
571 -> 601 ;
602 [label="age <= 43.5\ngini = 0.2\nsamples = 55\nvalue = [81, 8]"] ;
570 -> 602 ;
603 [label="age <= 41.5\ngini = 0.2\nsamples = 25\nvalue = [36, 6]"] ;
602 -> 603 ;
604 [label="gini = 0.2\nsamples = 13\nvalue = [16, 2]"] ;
603 -> 604 ;
605 [label="age <= 42.5\ngini = 0.3\nsamples = 12\nvalue = [20, 4]"] ;
603 -> 605 ;
606 [label="gini = 0.3\nsamples = 5\nvalue = [8, 2]"] ;
605 -> 606 ;
607 [label="gini = 0.2\nsamples = 7\nvalue = [12, 2]"] ;
605 -> 607 ;
608 [label="age <= 49.5\ngini = 0.1\nsamples = 30\nvalue = [45, 2]"] ;
602 -> 608 ;
609 [label="gini = 0.0\nsamples = 16\nvalue = [27, 0]"] ;
608 -> 609 ;
610 [label="age <= 50.5\ngini = 0.2\nsamples = 14\nvalue = [18, 2]"] ;
608 -> 610 ;
611 [label="gini = 0.4\nsamples = 5\nvalue = [6, 2]"] ;
610 -> 611 ;
612 [label="gini = 0.0\nsamples = 9\nvalue = [12, 0]"] ;
610 -> 612 ;
613 [label="gini = 0.0\nsamples = 1\nvalue = [0, 1]"] ;
505 -> 613 ;
614 [label="total_pages_visited <= 12.5\ngini = 0.3\nsamples = 505\nvalue = [649, 146]"] ;
364 -> 614 ;
615 [label="age <= 20.5\ngini = 0.3\nsamples = 325\nvalue = [423, 73]"] ;
614 -> 615 ;
616 [label="age <= 19.5\ngini = 0.5\nsamples = 57\nvalue = [49, 32]"] ;
615 -> 616 ;
617 [label="age <= 18.5\ngini = 0.4\nsamples = 41\nvalue = [37, 15]"] ;
616 -> 617 ;
618 [label="age <= 17.5\ngini = 0.4\nsamples = 32\nvalue = [29, 14]"] ;
617 -> 618 ;
619 [label="gini = 0.4\nsamples = 17\nvalue = [14, 7]"] ;
618 -> 619 ;
620 [label="gini = 0.4\nsamples = 15\nvalue = [15, 7]"] ;
618 -> 620 ;
621 [label="gini = 0.2\nsamples = 9\nvalue = [8, 1]"] ;
617 -> 621 ;
622 [label="gini = 0.5\nsamples = 16\nvalue = [12, 17]"] ;
616 -> 622 ;
623 [label="age <= 31.5\ngini = 0.2\nsamples = 268\nvalue = [374, 41]"] ;
615 -> 623 ;
624 [label="age <= 30.5\ngini = 0.2\nsamples = 143\nvalue = [193, 30]"] ;
623 -> 624 ;
625 [label="age <= 29.5\ngini = 0.2\nsamples = 133\nvalue = [183, 25]"] ;
624 -> 625 ;
626 [label="age <= 28.5\ngini = 0.2\nsamples = 116\nvalue = [152, 25]"] ;
625 -> 626 ;
627 [label="age <= 25.5\ngini = 0.2\nsamples = 106\nvalue = [142, 22]"] ;
626 -> 627 ;
628 [label="age <= 24.5\ngini = 0.3\nsamples = 68\nvalue = [82, 16]"] ;
627 -> 628 ;
629 [label="age <= 21.5\ngini = 0.2\nsamples = 58\nvalue = [69, 11]"] ;
628 -> 629 ;
630 [label="gini = 0.3\nsamples = 13\nvalue = [15, 3]"] ;
629 -> 630 ;
631 [label="age <= 22.5\ngini = 0.2\nsamples = 45\nvalue = [54, 8]"] ;
629 -> 631 ;
632 [label="gini = 0.0\nsamples = 6\nvalue = [8, 0]"] ;
631 -> 632 ;
633 [label="age <= 23.5\ngini = 0.3\nsamples = 39\nvalue = [46, 8]"] ;
631 -> 633 ;
634 [label="gini = 0.3\nsamples = 18\nvalue = [23, 4]"] ;
633 -> 634 ;
635 [label="gini = 0.3\nsamples = 21\nvalue = [23, 4]"] ;
633 -> 635 ;
636 [label="gini = 0.4\nsamples = 10\nvalue = [13, 5]"] ;
628 -> 636 ;
637 [label="age <= 27.5\ngini = 0.2\nsamples = 38\nvalue = [60, 6]"] ;
627 -> 637 ;
638 [label="age <= 26.5\ngini = 0.1\nsamples = 25\nvalue = [44, 3]"] ;
637 -> 638 ;
639 [label="gini = 0.1\nsamples = 8\nvalue = [13, 1]"] ;
638 -> 639 ;
640 [label="gini = 0.1\nsamples = 17\nvalue = [31, 2]"] ;
638 -> 640 ;
641 [label="gini = 0.3\nsamples = 13\nvalue = [16, 3]"] ;
637 -> 641 ;
642 [label="gini = 0.4\nsamples = 10\nvalue = [10, 3]"] ;
626 -> 642 ;
643 [label="gini = 0.0\nsamples = 17\nvalue = [31, 0]"] ;
625 -> 643 ;
644 [label="gini = 0.4\nsamples = 10\nvalue = [10, 5]"] ;
624 -> 644 ;
645 [label="age <= 35.5\ngini = 0.1\nsamples = 125\nvalue = [181, 11]"] ;
623 -> 645 ;
646 [label="age <= 34.5\ngini = 0.1\nsamples = 45\nvalue = [73, 2]"] ;
645 -> 646 ;
647 [label="age <= 33.5\ngini = 0.1\nsamples = 37\nvalue = [62, 2]"] ;
646 -> 647 ;
648 [label="age <= 32.5\ngini = 0.0\nsamples = 27\nvalue = [47, 1]"] ;
647 -> 648 ;
649 [label="gini = 0.1\nsamples = 15\nvalue = [27, 1]"] ;
648 -> 649 ;
650 [label="gini = 0.0\nsamples = 12\nvalue = [20, 0]"] ;
648 -> 650 ;
651 [label="gini = 0.1\nsamples = 10\nvalue = [15, 1]"] ;
647 -> 651 ;
652 [label="gini = 0.0\nsamples = 8\nvalue = [11, 0]"] ;
646 -> 652 ;
653 [label="age <= 36.5\ngini = 0.1\nsamples = 80\nvalue = [108, 9]"] ;
645 -> 653 ;
654 [label="gini = 0.4\nsamples = 5\nvalue = [6, 2]"] ;
653 -> 654 ;
655 [label="age <= 38.5\ngini = 0.1\nsamples = 75\nvalue = [102, 7]"] ;
653 -> 655 ;
656 [label="gini = 0.0\nsamples = 17\nvalue = [26, 0]"] ;
655 -> 656 ;
657 [label="age <= 46.5\ngini = 0.2\nsamples = 58\nvalue = [76, 7]"] ;
655 -> 657 ;
658 [label="age <= 44.5\ngini = 0.2\nsamples = 44\nvalue = [56, 7]"] ;
657 -> 658 ;
659 [label="age <= 40.5\ngini = 0.1\nsamples = 36\nvalue = [48, 4]"] ;
658 -> 659 ;
660 [label="age <= 39.5\ngini = 0.2\nsamples = 18\nvalue = [26, 3]"] ;
659 -> 660 ;
661 [label="gini = 0.1\nsamples = 10\nvalue = [14, 1]"] ;
660 -> 661 ;
662 [label="gini = 0.2\nsamples = 8\nvalue = [12, 2]"] ;
660 -> 662 ;
663 [label="age <= 42.5\ngini = 0.1\nsamples = 18\nvalue = [22, 1]"] ;
659 -> 663 ;
664 [label="gini = 0.0\nsamples = 13\nvalue = [16, 0]"] ;
663 -> 664 ;
665 [label="age <= 43.5\ngini = 0.2\nsamples = 5\nvalue = [6, 1]"] ;
663 -> 665 ;
666 [label="gini = 0.4\nsamples = 3\nvalue = [2, 1]"] ;
665 -> 666 ;
667 [label="gini = 0.0\nsamples = 2\nvalue = [4, 0]"] ;
665 -> 667 ;
668 [label="age <= 45.5\ngini = 0.4\nsamples = 8\nvalue = [8, 3]"] ;
658 -> 668 ;
669 [label="gini = 0.4\nsamples = 5\nvalue = [5, 2]"] ;
668 -> 669 ;
670 [label="gini = 0.4\nsamples = 3\nvalue = [3, 1]"] ;
668 -> 670 ;
671 [label="gini = 0.0\nsamples = 14\nvalue = [20, 0]"] ;
657 -> 671 ;
672 [label="age <= 26.5\ngini = 0.4\nsamples = 180\nvalue = [226, 73]"] ;
614 -> 672 ;
673 [label="age <= 22.5\ngini = 0.5\nsamples = 71\nvalue = [59, 53]"] ;
672 -> 673 ;
674 [label="age <= 18.5\ngini = 0.5\nsamples = 42\nvalue = [30, 34]"] ;
673 -> 674 ;
675 [label="age <= 17.5\ngini = 0.5\nsamples = 18\nvalue = [16, 12]"] ;
674 -> 675 ;
676 [label="gini = 0.5\nsamples = 9\nvalue = [7, 9]"] ;
675 -> 676 ;
677 [label="gini = 0.4\nsamples = 9\nvalue = [9, 3]"] ;
675 -> 677 ;
678 [label="age <= 20.5\ngini = 0.5\nsamples = 24\nvalue = [14, 22]"] ;
674 -> 678 ;
679 [label="age <= 19.5\ngini = 0.4\nsamples = 11\nvalue = [4, 11]"] ;
678 -> 679 ;
680 [label="gini = 0.4\nsamples = 6\nvalue = [3, 6]"] ;
679 -> 680 ;
681 [label="gini = 0.3\nsamples = 5\nvalue = [1, 5]"] ;
679 -> 681 ;
682 [label="age <= 21.5\ngini = 0.5\nsamples = 13\nvalue = [10, 11]"] ;
678 -> 682 ;
683 [label="gini = 0.5\nsamples = 5\nvalue = [4, 3]"] ;
682 -> 683 ;
684 [label="gini = 0.5\nsamples = 8\nvalue = [6, 8]"] ;
682 -> 684 ;
685 [label="age <= 24.5\ngini = 0.5\nsamples = 29\nvalue = [29, 19]"] ;
673 -> 685 ;
686 [label="age <= 23.5\ngini = 0.4\nsamples = 13\nvalue = [16, 7]"] ;
685 -> 686 ;
687 [label="gini = 0.5\nsamples = 6\nvalue = [7, 5]"] ;
686 -> 687 ;
688 [label="gini = 0.3\nsamples = 7\nvalue = [9, 2]"] ;
686 -> 688 ;
689 [label="age <= 25.5\ngini = 0.5\nsamples = 16\nvalue = [13, 12]"] ;
685 -> 689 ;
690 [label="gini = 0.5\nsamples = 6\nvalue = [5, 4]"] ;
689 -> 690 ;
691 [label="gini = 0.5\nsamples = 10\nvalue = [8, 8]"] ;
689 -> 691 ;
692 [label="age <= 31.5\ngini = 0.2\nsamples = 109\nvalue = [167, 20]"] ;
672 -> 692 ;
693 [label="age <= 30.5\ngini = 0.3\nsamples = 34\nvalue = [53, 13]"] ;
692 -> 693 ;
694 [label="age <= 27.5\ngini = 0.3\nsamples = 29\nvalue = [45, 8]"] ;
693 -> 694 ;
695 [label="gini = 0.0\nsamples = 5\nvalue = [10, 0]"] ;
694 -> 695 ;
696 [label="age <= 28.5\ngini = 0.3\nsamples = 24\nvalue = [35, 8]"] ;
694 -> 696 ;
697 [label="gini = 0.3\nsamples = 7\nvalue = [7, 2]"] ;
696 -> 697 ;
698 [label="age <= 29.5\ngini = 0.3\nsamples = 17\nvalue = [28, 6]"] ;
696 -> 698 ;
699 [label="gini = 0.3\nsamples = 6\nvalue = [11, 2]"] ;
698 -> 699 ;
700 [label="gini = 0.3\nsamples = 11\nvalue = [17, 4]"] ;
698 -> 700 ;
701 [label="gini = 0.5\nsamples = 5\nvalue = [8, 5]"] ;
693 -> 701 ;
702 [label="age <= 40.5\ngini = 0.1\nsamples = 75\nvalue = [114, 7]"] ;
692 -> 702 ;
703 [label="age <= 36.5\ngini = 0.2\nsamples = 49\nvalue = [75, 7]"] ;
702 -> 703 ;
704 [label="age <= 33.5\ngini = 0.1\nsamples = 33\nvalue = [56, 4]"] ;
703 -> 704 ;
705 [label="age <= 32.5\ngini = 0.2\nsamples = 20\nvalue = [34, 4]"] ;
704 -> 705 ;
706 [label="gini = 0.2\nsamples = 10\nvalue = [17, 2]"] ;
705 -> 706 ;
707 [label="gini = 0.2\nsamples = 10\nvalue = [17, 2]"] ;
705 -> 707 ;
708 [label="gini = 0.0\nsamples = 13\nvalue = [22, 0]"] ;
704 -> 708 ;
709 [label="age <= 37.5\ngini = 0.2\nsamples = 16\nvalue = [19, 3]"] ;
703 -> 709 ;
710 [label="gini = 0.4\nsamples = 4\nvalue = [5, 2]"] ;
709 -> 710 ;
711 [label="age <= 39.5\ngini = 0.1\nsamples = 12\nvalue = [14, 1]"] ;
709 -> 711 ;
712 [label="gini = 0.0\nsamples = 8\nvalue = [9, 0]"] ;
711 -> 712 ;
713 [label="gini = 0.3\nsamples = 4\nvalue = [5, 1]"] ;
711 -> 713 ;
714 [label="gini = 0.0\nsamples = 26\nvalue = [39, 0]"] ;
702 -> 714 ;
715 [label="age <= 19.5\ngini = 0.0\nsamples = 17003\nvalue = [26660, 180]"] ;
363 -> 715 ;
716 [label="total_pages_visited <= 9.5\ngini = 0.0\nsamples = 1357\nvalue = [2072, 43]"] ;
715 -> 716 ;
717 [label="total_pages_visited <= 8.5\ngini = 0.0\nsamples = 1270\nvalue = [1967, 16]"] ;
716 -> 717 ;
718 [label="total_pages_visited <= 2.5\ngini = 0.0\nsamples = 1213\nvalue = [1876, 9]"] ;
717 -> 718 ;
719 [label="gini = 0.0\nsamples = 357\nvalue = [558, 0]"] ;
718 -> 719 ;
720 [label="total_pages_visited <= 3.5\ngini = 0.0\nsamples = 856\nvalue = [1318, 9]"] ;
718 -> 720 ;
721 [label="age <= 18.5\ngini = 0.0\nsamples = 198\nvalue = [302, 7]"] ;
720 -> 721 ;
722 [label="gini = 0.0\nsamples = 111\nvalue = [177, 0]"] ;
721 -> 722 ;
723 [label="gini = 0.1\nsamples = 87\nvalue = [125, 7]"] ;
721 -> 723 ;
724 [label="total_pages_visited <= 7.5\ngini = 0.0\nsamples = 658\nvalue = [1016, 2]"] ;
720 -> 724 ;
725 [label="age <= 17.5\ngini = 0.0\nsamples = 582\nvalue = [902, 1]"] ;
724 -> 725 ;
726 [label="total_pages_visited <= 4.5\ngini = 0.0\nsamples = 163\nvalue = [251, 1]"] ;
725 -> 726 ;
727 [label="gini = 0.0\nsamples = 49\nvalue = [84, 1]"] ;
726 -> 727 ;
728 [label="gini = 0.0\nsamples = 114\nvalue = [167, 0]"] ;
726 -> 728 ;
729 [label="gini = 0.0\nsamples = 419\nvalue = [651, 0]"] ;
725 -> 729 ;
730 [label="age <= 18.5\ngini = 0.0\nsamples = 76\nvalue = [114, 1]"] ;
724 -> 730 ;
731 [label="age <= 17.5\ngini = 0.0\nsamples = 47\nvalue = [68, 1]"] ;
730 -> 731 ;
732 [label="gini = 0.0\nsamples = 25\nvalue = [34, 0]"] ;
731 -> 732 ;
733 [label="gini = 0.1\nsamples = 22\nvalue = [34, 1]"] ;
731 -> 733 ;
734 [label="gini = 0.0\nsamples = 29\nvalue = [46, 0]"] ;
730 -> 734 ;
735 [label="age <= 17.5\ngini = 0.1\nsamples = 57\nvalue = [91, 7]"] ;
717 -> 735 ;
736 [label="gini = 0.0\nsamples = 18\nvalue = [32, 0]"] ;
735 -> 736 ;
737 [label="age <= 18.5\ngini = 0.2\nsamples = 39\nvalue = [59, 7]"] ;
735 -> 737 ;
738 [label="gini = 0.2\nsamples = 14\nvalue = [19, 3]"] ;
737 -> 738 ;
739 [label="gini = 0.2\nsamples = 25\nvalue = [40, 4]"] ;
737 -> 739 ;
740 [label="age <= 18.5\ngini = 0.3\nsamples = 87\nvalue = [105, 27]"] ;
716 -> 740 ;
741 [label="age <= 17.5\ngini = 0.3\nsamples = 46\nvalue = [56, 13]"] ;
740 -> 741 ;
742 [label="total_pages_visited <= 12.5\ngini = 0.3\nsamples = 24\nvalue = [30, 7]"] ;
741 -> 742 ;
743 [label="total_pages_visited <= 11.5\ngini = 0.2\nsamples = 23\nvalue = [30, 5]"] ;
742 -> 743 ;
744 [label="total_pages_visited <= 10.5\ngini = 0.2\nsamples = 19\nvalue = [23, 3]"] ;
743 -> 744 ;
745 [label="gini = 0.2\nsamples = 15\nvalue = [18, 3]"] ;
744 -> 745 ;
746 [label="gini = 0.0\nsamples = 4\nvalue = [5, 0]"] ;
744 -> 746 ;
747 [label="gini = 0.3\nsamples = 4\nvalue = [7, 2]"] ;
743 -> 747 ;
748 [label="gini = 0.0\nsamples = 1\nvalue = [0, 2]"] ;
742 -> 748 ;
749 [label="total_pages_visited <= 12.5\ngini = 0.3\nsamples = 22\nvalue = [26, 6]"] ;
741 -> 749 ;
750 [label="total_pages_visited <= 11.5\ngini = 0.3\nsamples = 21\nvalue = [26, 5]"] ;
749 -> 750 ;
751 [label="total_pages_visited <= 10.5\ngini = 0.3\nsamples = 18\nvalue = [23, 5]"] ;
750 -> 751 ;
752 [label="gini = 0.3\nsamples = 11\nvalue = [11, 3]"] ;
751 -> 752 ;
753 [label="gini = 0.2\nsamples = 7\nvalue = [12, 2]"] ;
751 -> 753 ;
754 [label="gini = 0.0\nsamples = 3\nvalue = [3, 0]"] ;
750 -> 754 ;
755 [label="gini = 0.0\nsamples = 1\nvalue = [0, 1]"] ;
749 -> 755 ;
756 [label="total_pages_visited <= 12.5\ngini = 0.3\nsamples = 41\nvalue = [49, 14]"] ;
740 -> 756 ;
757 [label="total_pages_visited <= 11.5\ngini = 0.3\nsamples = 38\nvalue = [47, 12]"] ;
756 -> 757 ;
758 [label="total_pages_visited <= 10.5\ngini = 0.3\nsamples = 28\nvalue = [36, 8]"] ;
757 -> 758 ;
759 [label="gini = 0.3\nsamples = 15\nvalue = [20, 4]"] ;
758 -> 759 ;
760 [label="gini = 0.3\nsamples = 13\nvalue = [16, 4]"] ;
758 -> 760 ;
761 [label="gini = 0.4\nsamples = 10\nvalue = [11, 4]"] ;
757 -> 761 ;
762 [label="gini = 0.5\nsamples = 3\nvalue = [2, 2]"] ;
756 -> 762 ;
763 [label="age <= 29.5\ngini = 0.0\nsamples = 15646\nvalue = [24588, 137]"] ;
715 -> 763 ;
764 [label="total_pages_visited <= 10.5\ngini = 0.0\nsamples = 6784\nvalue = [10624, 79]"] ;
763 -> 764 ;
765 [label="age <= 27.5\ngini = 0.0\nsamples = 6559\nvalue = [10328, 25]"] ;
764 -> 765 ;
766 [label="total_pages_visited <= 8.5\ngini = 0.0\nsamples = 5079\nvalue = [8036, 15]"] ;
765 -> 766 ;
767 [label="total_pages_visited <= 6.5\ngini = 0.0\nsamples = 4759\nvalue = [7550, 6]"] ;
766 -> 767 ;
768 [label="total_pages_visited <= 5.5\ngini = 0.0\nsamples = 4053\nvalue = [6456, 1]"] ;
767 -> 768 ;
769 [label="gini = 0.0\nsamples = 3537\nvalue = [5642, 0]"] ;
768 -> 769 ;
770 [label="age <= 23.5\ngini = 0.0\nsamples = 516\nvalue = [814, 1]"] ;
768 -> 770 ;
771 [label="age <= 22.5\ngini = 0.0\nsamples = 233\nvalue = [375, 1]"] ;
770 -> 771 ;
772 [label="gini = 0.0\nsamples = 181\nvalue = [291, 0]"] ;
771 -> 772 ;
773 [label="gini = 0.0\nsamples = 52\nvalue = [84, 1]"] ;
771 -> 773 ;
774 [label="gini = 0.0\nsamples = 283\nvalue = [439, 0]"] ;
770 -> 774 ;
775 [label="total_pages_visited <= 7.5\ngini = 0.0\nsamples = 706\nvalue = [1094, 5]"] ;
767 -> 775 ;
776 [label="age <= 22.5\ngini = 0.0\nsamples = 405\nvalue = [633, 2]"] ;
775 -> 776 ;
777 [label="age <= 21.5\ngini = 0.0\nsamples = 134\nvalue = [211, 2]"] ;
776 -> 777 ;
778 [label="gini = 0.0\nsamples = 93\nvalue = [150, 0]"] ;
777 -> 778 ;
779 [label="gini = 0.1\nsamples = 41\nvalue = [61, 2]"] ;
777 -> 779 ;
780 [label="gini = 0.0\nsamples = 271\nvalue = [422, 0]"] ;
776 -> 780 ;
781 [label="age <= 24.5\ngini = 0.0\nsamples = 301\nvalue = [461, 3]"] ;
775 -> 781 ;
782 [label="gini = 0.0\nsamples = 171\nvalue = [271, 0]"] ;
781 -> 782 ;
783 [label="age <= 26.5\ngini = 0.0\nsamples = 130\nvalue = [190, 3]"] ;
781 -> 783 ;
784 [label="age <= 25.5\ngini = 0.0\nsamples = 95\nvalue = [141, 3]"] ;
783 -> 784 ;
785 [label="gini = 0.0\nsamples = 45\nvalue = [68, 1]"] ;
784 -> 785 ;
786 [label="gini = 0.1\nsamples = 50\nvalue = [73, 2]"] ;
784 -> 786 ;
787 [label="gini = 0.0\nsamples = 35\nvalue = [49, 0]"] ;
783 -> 787 ;
788 [label="age <= 22.5\ngini = 0.0\nsamples = 320\nvalue = [486, 9]"] ;
766 -> 788 ;
789 [label="age <= 20.5\ngini = 0.1\nsamples = 100\nvalue = [156, 5]"] ;
788 -> 789 ;
790 [label="gini = 0.0\nsamples = 25\nvalue = [41, 0]"] ;
789 -> 790 ;
791 [label="age <= 21.5\ngini = 0.1\nsamples = 75\nvalue = [115, 5]"] ;
789 -> 791 ;
792 [label="total_pages_visited <= 9.5\ngini = 0.1\nsamples = 35\nvalue = [46, 2]"] ;
791 -> 792 ;
793 [label="gini = 0.1\nsamples = 18\nvalue = [24, 2]"] ;
792 -> 793 ;
794 [label="gini = 0.0\nsamples = 17\nvalue = [22, 0]"] ;
792 -> 794 ;
795 [label="total_pages_visited <= 9.5\ngini = 0.1\nsamples = 40\nvalue = [69, 3]"] ;
791 -> 795 ;
796 [label="gini = 0.1\nsamples = 27\nvalue = [50, 2]"] ;
795 -> 796 ;
797 [label="gini = 0.1\nsamples = 13\nvalue = [19, 1]"] ;
795 -> 797 ;
798 [label="age <= 24.5\ngini = 0.0\nsamples = 220\nvalue = [330, 4]"] ;
788 -> 798 ;
799 [label="age <= 23.5\ngini = 0.0\nsamples = 80\nvalue = [116, 2]"] ;
798 -> 799 ;
800 [label="total_pages_visited <= 9.5\ngini = 0.0\nsamples = 46\nvalue = [67, 1]"] ;
799 -> 800 ;
801 [label="gini = 0.0\nsamples = 29\nvalue = [44, 0]"] ;
800 -> 801 ;
802 [label="gini = 0.1\nsamples = 17\nvalue = [23, 1]"] ;
800 -> 802 ;
803 [label="total_pages_visited <= 9.5\ngini = 0.0\nsamples = 34\nvalue = [49, 1]"] ;
799 -> 803 ;
804 [label="gini = 0.0\nsamples = 25\nvalue = [36, 0]"] ;
803 -> 804 ;
805 [label="gini = 0.1\nsamples = 9\nvalue = [13, 1]"] ;
803 -> 805 ;
806 [label="total_pages_visited <= 9.5\ngini = 0.0\nsamples = 140\nvalue = [214, 2]"] ;
798 -> 806 ;
807 [label="gini = 0.0\nsamples = 85\nvalue = [134, 0]"] ;
806 -> 807 ;
808 [label="age <= 25.5\ngini = 0.0\nsamples = 55\nvalue = [80, 2]"] ;
806 -> 808 ;
809 [label="gini = 0.0\nsamples = 10\nvalue = [13, 0]"] ;
808 -> 809 ;
810 [label="age <= 26.5\ngini = 0.1\nsamples = 45\nvalue = [67, 2]"] ;
808 -> 810 ;
811 [label="gini = 0.1\nsamples = 21\nvalue = [32, 1]"] ;
810 -> 811 ;
812 [label="gini = 0.1\nsamples = 24\nvalue = [35, 1]"] ;
810 -> 812 ;
813 [label="age <= 28.5\ngini = 0.0\nsamples = 1480\nvalue = [2292, 10]"] ;
765 -> 813 ;
814 [label="total_pages_visited <= 6.5\ngini = 0.0\nsamples = 732\nvalue = [1109, 4]"] ;
813 -> 814 ;
815 [label="gini = 0.0\nsamples = 579\nvalue = [876, 0]"] ;
814 -> 815 ;
816 [label="total_pages_visited <= 7.5\ngini = 0.0\nsamples = 153\nvalue = [233, 4]"] ;
814 -> 816 ;
817 [label="gini = 0.1\nsamples = 56\nvalue = [78, 3]"] ;
816 -> 817 ;
818 [label="total_pages_visited <= 9.5\ngini = 0.0\nsamples = 97\nvalue = [155, 1]"] ;
816 -> 818 ;
819 [label="gini = 0.0\nsamples = 69\nvalue = [114, 0]"] ;
818 -> 819 ;
820 [label="gini = 0.0\nsamples = 28\nvalue = [41, 1]"] ;
818 -> 820 ;
821 [label="total_pages_visited <= 6.5\ngini = 0.0\nsamples = 748\nvalue = [1183, 6]"] ;
813 -> 821 ;
822 [label="total_pages_visited <= 5.5\ngini = 0.0\nsamples = 602\nvalue = [956, 1]"] ;
821 -> 822 ;
823 [label="gini = 0.0\nsamples = 527\nvalue = [852, 0]"] ;
822 -> 823 ;
824 [label="gini = 0.0\nsamples = 75\nvalue = [104, 1]"] ;
822 -> 824 ;
825 [label="total_pages_visited <= 7.5\ngini = 0.0\nsamples = 146\nvalue = [227, 5]"] ;
821 -> 825 ;
826 [label="gini = 0.1\nsamples = 58\nvalue = [87, 5]"] ;
825 -> 826 ;
827 [label="gini = 0.0\nsamples = 88\nvalue = [140, 0]"] ;
825 -> 827 ;
828 [label="age <= 28.5\ngini = 0.3\nsamples = 225\nvalue = [296, 54]"] ;
764 -> 828 ;
829 [label="total_pages_visited <= 12.5\ngini = 0.3\nsamples = 201\nvalue = [265, 51]"] ;
828 -> 829 ;
830 [label="total_pages_visited <= 11.5\ngini = 0.2\nsamples = 164\nvalue = [223, 38]"] ;
829 -> 830 ;
831 [label="age <= 20.5\ngini = 0.3\nsamples = 95\nvalue = [127, 23]"] ;
830 -> 831 ;
832 [label="gini = 0.4\nsamples = 2\nvalue = [1, 2]"] ;
831 -> 832 ;
833 [label="age <= 26.5\ngini = 0.2\nsamples = 93\nvalue = [126, 21]"] ;
831 -> 833 ;
834 [label="age <= 21.5\ngini = 0.2\nsamples = 64\nvalue = [92, 12]"] ;
833 -> 834 ;
835 [label="gini = 0.0\nsamples = 7\nvalue = [9, 0]"] ;
834 -> 835 ;
836 [label="age <= 25.5\ngini = 0.2\nsamples = 57\nvalue = [83, 12]"] ;
834 -> 836 ;
837 [label="age <= 24.5\ngini = 0.2\nsamples = 43\nvalue = [64, 10]"] ;
836 -> 837 ;
838 [label="age <= 23.5\ngini = 0.2\nsamples = 29\nvalue = [44, 6]"] ;
837 -> 838 ;
839 [label="age <= 22.5\ngini = 0.2\nsamples = 19\nvalue = [27, 4]"] ;
838 -> 839 ;
840 [label="gini = 0.2\nsamples = 11\nvalue = [14, 2]"] ;
839 -> 840 ;
841 [label="gini = 0.2\nsamples = 8\nvalue = [13, 2]"] ;
839 -> 841 ;
842 [label="gini = 0.2\nsamples = 10\nvalue = [17, 2]"] ;
838 -> 842 ;
843 [label="gini = 0.3\nsamples = 14\nvalue = [20, 4]"] ;
837 -> 843 ;
844 [label="gini = 0.2\nsamples = 14\nvalue = [19, 2]"] ;
836 -> 844 ;
845 [label="age <= 27.5\ngini = 0.3\nsamples = 29\nvalue = [34, 9]"] ;
833 -> 845 ;
846 [label="gini = 0.3\nsamples = 14\nvalue = [19, 5]"] ;
845 -> 846 ;
847 [label="gini = 0.3\nsamples = 15\nvalue = [15, 4]"] ;
845 -> 847 ;
848 [label="age <= 27.5\ngini = 0.2\nsamples = 69\nvalue = [96, 15]"] ;
830 -> 848 ;
849 [label="age <= 26.5\ngini = 0.2\nsamples = 60\nvalue = [87, 11]"] ;
848 -> 849 ;
850 [label="age <= 25.5\ngini = 0.2\nsamples = 50\nvalue = [69, 11]"] ;
849 -> 850 ;
851 [label="age <= 24.5\ngini = 0.2\nsamples = 44\nvalue = [60, 8]"] ;
850 -> 851 ;
852 [label="age <= 20.5\ngini = 0.2\nsamples = 37\nvalue = [50, 8]"] ;
851 -> 852 ;
853 [label="gini = 0.2\nsamples = 7\nvalue = [10, 1]"] ;
852 -> 853 ;
854 [label="age <= 23.5\ngini = 0.3\nsamples = 30\nvalue = [40, 7]"] ;
852 -> 854 ;
855 [label="age <= 21.5\ngini = 0.2\nsamples = 26\nvalue = [36, 6]"] ;
854 -> 855 ;
856 [label="gini = 0.3\nsamples = 8\nvalue = [10, 2]"] ;
855 -> 856 ;
857 [label="age <= 22.5\ngini = 0.2\nsamples = 18\nvalue = [26, 4]"] ;
855 -> 857 ;
858 [label="gini = 0.2\nsamples = 7\nvalue = [12, 2]"] ;
857 -> 858 ;
859 [label="gini = 0.2\nsamples = 11\nvalue = [14, 2]"] ;
857 -> 859 ;
860 [label="gini = 0.3\nsamples = 4\nvalue = [4, 1]"] ;
854 -> 860 ;
861 [label="gini = 0.0\nsamples = 7\nvalue = [10, 0]"] ;
851 -> 861 ;
862 [label="gini = 0.4\nsamples = 6\nvalue = [9, 3]"] ;
850 -> 862 ;
863 [label="gini = 0.0\nsamples = 10\nvalue = [18, 0]"] ;
849 -> 863 ;
864 [label="gini = 0.4\nsamples = 9\nvalue = [9, 4]"] ;
848 -> 864 ;
865 [label="age <= 26.5\ngini = 0.4\nsamples = 37\nvalue = [42, 13]"] ;
829 -> 865 ;
866 [label="age <= 20.5\ngini = 0.4\nsamples = 27\nvalue = [27, 12]"] ;
865 -> 866 ;
867 [label="gini = 0.0\nsamples = 3\nvalue = [5, 0]"] ;
866 -> 867 ;
868 [label="age <= 23.5\ngini = 0.5\nsamples = 24\nvalue = [22, 12]"] ;
866 -> 868 ;
869 [label="age <= 21.5\ngini = 0.5\nsamples = 8\nvalue = [6, 6]"] ;
868 -> 869 ;
870 [label="gini = 0.4\nsamples = 3\nvalue = [3, 1]"] ;
869 -> 870 ;
871 [label="age <= 22.5\ngini = 0.5\nsamples = 5\nvalue = [3, 5]"] ;
869 -> 871 ;
872 [label="gini = 0.0\nsamples = 1\nvalue = [0, 1]"] ;
871 -> 872 ;
873 [label="gini = 0.5\nsamples = 4\nvalue = [3, 4]"] ;
871 -> 873 ;
874 [label="age <= 24.5\ngini = 0.4\nsamples = 16\nvalue = [16, 6]"] ;
868 -> 874 ;
875 [label="gini = 0.4\nsamples = 6\nvalue = [6, 3]"] ;
874 -> 875 ;
876 [label="age <= 25.5\ngini = 0.4\nsamples = 10\nvalue = [10, 3]"] ;
874 -> 876 ;
877 [label="gini = 0.0\nsamples = 3\nvalue = [4, 0]"] ;
876 -> 877 ;
878 [label="gini = 0.4\nsamples = 7\nvalue = [6, 3]"] ;
876 -> 878 ;
879 [label="age <= 27.5\ngini = 0.1\nsamples = 10\nvalue = [15, 1]"] ;
865 -> 879 ;
880 [label="gini = 0.2\nsamples = 7\nvalue = [9, 1]"] ;
879 -> 880 ;
881 [label="gini = 0.0\nsamples = 3\nvalue = [6, 0]"] ;
879 -> 881 ;
882 [label="total_pages_visited <= 12.5\ngini = 0.2\nsamples = 24\nvalue = [31, 3]"] ;
828 -> 882 ;
883 [label="total_pages_visited <= 11.5\ngini = 0.1\nsamples = 21\nvalue = [27, 1]"] ;
882 -> 883 ;
884 [label="gini = 0.1\nsamples = 11\nvalue = [14, 1]"] ;
883 -> 884 ;
885 [label="gini = 0.0\nsamples = 10\nvalue = [13, 0]"] ;
883 -> 885 ;
886 [label="gini = 0.4\nsamples = 3\nvalue = [4, 2]"] ;
882 -> 886 ;
887 [label="total_pages_visited <= 10.5\ngini = 0.0\nsamples = 8862\nvalue = [13964, 58]"] ;
763 -> 887 ;
888 [label="total_pages_visited <= 6.5\ngini = 0.0\nsamples = 8611\nvalue = [13594, 33]"] ;
887 -> 888 ;
889 [label="total_pages_visited <= 2.5\ngini = 0.0\nsamples = 6854\nvalue = [10809, 3]"] ;
888 -> 889 ;
890 [label="total_pages_visited <= 1.5\ngini = 0.0\nsamples = 2451\nvalue = [3876, 2]"] ;
889 -> 890 ;
891 [label="gini = 0.0\nsamples = 1161\nvalue = [1849, 0]"] ;
890 -> 891 ;
892 [label="age <= 33.5\ngini = 0.0\nsamples = 1290\nvalue = [2027, 2]"] ;
890 -> 892 ;
893 [label="age <= 32.5\ngini = 0.0\nsamples = 437\nvalue = [682, 2]"] ;
892 -> 893 ;
894 [label="gini = 0.0\nsamples = 344\nvalue = [540, 0]"] ;
893 -> 894 ;
895 [label="gini = 0.0\nsamples = 93\nvalue = [142, 2]"] ;
893 -> 895 ;
896 [label="gini = 0.0\nsamples = 853\nvalue = [1345, 0]"] ;
892 -> 896 ;
897 [label="total_pages_visited <= 5.5\ngini = 0.0\nsamples = 4403\nvalue = [6933, 1]"] ;
889 -> 897 ;
898 [label="gini = 0.0\nsamples = 3554\nvalue = [5605, 0]"] ;
897 -> 898 ;
899 [label="age <= 33.5\ngini = 0.0\nsamples = 849\nvalue = [1328, 1]"] ;
897 -> 899 ;
900 [label="age <= 32.5\ngini = 0.0\nsamples = 298\nvalue = [474, 1]"] ;
899 -> 900 ;
901 [label="gini = 0.0\nsamples = 218\nvalue = [343, 0]"] ;
900 -> 901 ;
902 [label="gini = 0.0\nsamples = 80\nvalue = [131, 1]"] ;
900 -> 902 ;
903 [label="gini = 0.0\nsamples = 551\nvalue = [854, 0]"] ;
899 -> 903 ;
904 [label="age <= 36.5\ngini = 0.0\nsamples = 1757\nvalue = [2785, 30]"] ;
888 -> 904 ;
905 [label="total_pages_visited <= 9.5\ngini = 0.0\nsamples = 973\nvalue = [1513, 21]"] ;
904 -> 905 ;
906 [label="total_pages_visited <= 7.5\ngini = 0.0\nsamples = 832\nvalue = [1316, 16]"] ;
905 -> 906 ;
907 [label="age <= 33.5\ngini = 0.0\nsamples = 383\nvalue = [615, 11]"] ;
906 -> 907 ;
908 [label="age <= 30.5\ngini = 0.0\nsamples = 221\nvalue = [358, 3]"] ;
907 -> 908 ;
909 [label="gini = 0.0\nsamples = 56\nvalue = [85, 0]"] ;
908 -> 909 ;
910 [label="age <= 31.5\ngini = 0.0\nsamples = 165\nvalue = [273, 3]"] ;
908 -> 910 ;
911 [label="gini = 0.0\nsamples = 46\nvalue = [76, 2]"] ;
910 -> 911 ;
912 [label="age <= 32.5\ngini = 0.0\nsamples = 119\nvalue = [197, 1]"] ;
910 -> 912 ;
913 [label="gini = 0.0\nsamples = 55\nvalue = [98, 0]"] ;
912 -> 913 ;
914 [label="gini = 0.0\nsamples = 64\nvalue = [99, 1]"] ;
912 -> 914 ;
915 [label="age <= 34.5\ngini = 0.1\nsamples = 162\nvalue = [257, 8]"] ;
907 -> 915 ;
916 [label="gini = 0.2\nsamples = 49\nvalue = [73, 7]"] ;
915 -> 916 ;
917 [label="age <= 35.5\ngini = 0.0\nsamples = 113\nvalue = [184, 1]"] ;
915 -> 917 ;
918 [label="gini = 0.0\nsamples = 56\nvalue = [90, 0]"] ;
917 -> 918 ;
919 [label="gini = 0.0\nsamples = 57\nvalue = [94, 1]"] ;
917 -> 919 ;
920 [label="total_pages_visited <= 8.5\ngini = 0.0\nsamples = 449\nvalue = [701, 5]"] ;
906 -> 920 ;
921 [label="age <= 34.5\ngini = 0.0\nsamples = 265\nvalue = [410, 2]"] ;
920 -> 921 ;
922 [label="gini = 0.0\nsamples = 205\nvalue = [317, 0]"] ;
921 -> 922 ;
923 [label="age <= 35.5\ngini = 0.0\nsamples = 60\nvalue = [93, 2]"] ;
921 -> 923 ;
924 [label="gini = 0.1\nsamples = 36\nvalue = [55, 2]"] ;
923 -> 924 ;
925 [label="gini = 0.0\nsamples = 24\nvalue = [38, 0]"] ;
923 -> 925 ;
926 [label="age <= 35.5\ngini = 0.0\nsamples = 184\nvalue = [291, 3]"] ;
920 -> 926 ;
927 [label="age <= 30.5\ngini = 0.0\nsamples = 163\nvalue = [260, 2]"] ;
926 -> 927 ;
928 [label="gini = 0.0\nsamples = 24\nvalue = [38, 1]"] ;
927 -> 928 ;
929 [label="age <= 33.5\ngini = 0.0\nsamples = 139\nvalue = [222, 1]"] ;
927 -> 929 ;
930 [label="age <= 32.5\ngini = 0.0\nsamples = 81\nvalue = [130, 1]"] ;
929 -> 930 ;
931 [label="gini = 0.0\nsamples = 49\nvalue = [78, 0]"] ;
930 -> 931 ;
932 [label="gini = 0.0\nsamples = 32\nvalue = [52, 1]"] ;
930 -> 932 ;
933 [label="gini = 0.0\nsamples = 58\nvalue = [92, 0]"] ;
929 -> 933 ;
934 [label="gini = 0.1\nsamples = 21\nvalue = [31, 1]"] ;
926 -> 934 ;
935 [label="age <= 33.5\ngini = 0.0\nsamples = 141\nvalue = [197, 5]"] ;
905 -> 935 ;
936 [label="age <= 31.5\ngini = 0.0\nsamples = 84\nvalue = [123, 1]"] ;
935 -> 936 ;
937 [label="gini = 0.0\nsamples = 40\nvalue = [60, 0]"] ;
936 -> 937 ;
938 [label="age <= 32.5\ngini = 0.0\nsamples = 44\nvalue = [63, 1]"] ;
936 -> 938 ;
939 [label="gini = 0.1\nsamples = 25\nvalue = [36, 1]"] ;
938 -> 939 ;
940 [label="gini = 0.0\nsamples = 19\nvalue = [27, 0]"] ;
938 -> 940 ;
941 [label="age <= 35.5\ngini = 0.1\nsamples = 57\nvalue = [74, 4]"] ;
935 -> 941 ;
942 [label="age <= 34.5\ngini = 0.1\nsamples = 43\nvalue = [57, 4]"] ;
941 -> 942 ;
943 [label="gini = 0.1\nsamples = 20\nvalue = [26, 2]"] ;
942 -> 943 ;
944 [label="gini = 0.1\nsamples = 23\nvalue = [31, 2]"] ;
942 -> 944 ;
945 [label="gini = 0.0\nsamples = 14\nvalue = [17, 0]"] ;
941 -> 945 ;
946 [label="age <= 41.5\ngini = 0.0\nsamples = 784\nvalue = [1272, 9]"] ;
904 -> 946 ;
947 [label="gini = 0.0\nsamples = 403\nvalue = [637, 0]"] ;
946 -> 947 ;
948 [label="age <= 43.5\ngini = 0.0\nsamples = 381\nvalue = [635, 9]"] ;
946 -> 948 ;
949 [label="age <= 42.5\ngini = 0.1\nsamples = 132\nvalue = [213, 7]"] ;
948 -> 949 ;
950 [label="total_pages_visited <= 8.5\ngini = 0.1\nsamples = 59\nvalue = [97, 4]"] ;
949 -> 950 ;
951 [label="gini = 0.0\nsamples = 40\nvalue = [66, 0]"] ;
950 -> 951 ;
952 [label="total_pages_visited <= 9.5\ngini = 0.2\nsamples = 19\nvalue = [31, 4]"] ;
950 -> 952 ;
953 [label="gini = 0.3\nsamples = 11\nvalue = [17, 4]"] ;
952 -> 953 ;
954 [label="gini = 0.0\nsamples = 8\nvalue = [14, 0]"] ;
952 -> 954 ;
955 [label="total_pages_visited <= 7.5\ngini = 0.0\nsamples = 73\nvalue = [116, 3]"] ;
949 -> 955 ;
956 [label="gini = 0.0\nsamples = 28\nvalue = [49, 0]"] ;
955 -> 956 ;
957 [label="total_pages_visited <= 8.5\ngini = 0.1\nsamples = 45\nvalue = [67, 3]"] ;
955 -> 957 ;
958 [label="gini = 0.2\nsamples = 18\nvalue = [23, 3]"] ;
957 -> 958 ;
959 [label="gini = 0.0\nsamples = 27\nvalue = [44, 0]"] ;
957 -> 959 ;
960 [label="total_pages_visited <= 7.5\ngini = 0.0\nsamples = 249\nvalue = [422, 2]"] ;
948 -> 960 ;
961 [label="age <= 46.5\ngini = 0.0\nsamples = 88\nvalue = [152, 2]"] ;
960 -> 961 ;
962 [label="gini = 0.0\nsamples = 46\nvalue = [81, 0]"] ;
961 -> 962 ;
963 [label="age <= 47.5\ngini = 0.1\nsamples = 42\nvalue = [71, 2]"] ;
961 -> 963 ;
964 [label="gini = 0.2\nsamples = 14\nvalue = [21, 2]"] ;
963 -> 964 ;
965 [label="gini = 0.0\nsamples = 28\nvalue = [50, 0]"] ;
963 -> 965 ;
966 [label="gini = 0.0\nsamples = 161\nvalue = [270, 0]"] ;
960 -> 966 ;
967 [label="age <= 34.5\ngini = 0.1\nsamples = 251\nvalue = [370, 25]"] ;
887 -> 967 ;
968 [label="total_pages_visited <= 12.5\ngini = 0.1\nsamples = 107\nvalue = [165, 6]"] ;
967 -> 968 ;
969 [label="total_pages_visited <= 11.5\ngini = 0.0\nsamples = 85\nvalue = [134, 2]"] ;
968 -> 969 ;
970 [label="age <= 33.5\ngini = 0.0\nsamples = 57\nvalue = [89, 2]"] ;
969 -> 970 ;
971 [label="age <= 32.5\ngini = 0.1\nsamples = 42\nvalue = [63, 2]"] ;
970 -> 971 ;
972 [label="age <= 30.5\ngini = 0.0\nsamples = 34\nvalue = [53, 1]"] ;
971 -> 972 ;
973 [label="gini = 0.0\nsamples = 13\nvalue = [21, 0]"] ;
972 -> 973 ;
974 [label="age <= 31.5\ngini = 0.1\nsamples = 21\nvalue = [32, 1]"] ;
972 -> 974 ;
975 [label="gini = 0.1\nsamples = 8\nvalue = [13, 1]"] ;
974 -> 975 ;
976 [label="gini = 0.0\nsamples = 13\nvalue = [19, 0]"] ;
974 -> 976 ;
977 [label="gini = 0.2\nsamples = 8\nvalue = [10, 1]"] ;
971 -> 977 ;
978 [label="gini = 0.0\nsamples = 15\nvalue = [26, 0]"] ;
970 -> 978 ;
979 [label="gini = 0.0\nsamples = 28\nvalue = [45, 0]"] ;
969 -> 979 ;
980 [label="age <= 33.5\ngini = 0.2\nsamples = 22\nvalue = [31, 4]"] ;
968 -> 980 ;
981 [label="age <= 31.5\ngini = 0.3\nsamples = 16\nvalue = [21, 4]"] ;
980 -> 981 ;
982 [label="age <= 30.5\ngini = 0.1\nsamples = 8\nvalue = [14, 1]"] ;
981 -> 982 ;
983 [label="gini = 0.2\nsamples = 4\nvalue = [8, 1]"] ;
982 -> 983 ;
984 [label="gini = 0.0\nsamples = 4\nvalue = [6, 0]"] ;
982 -> 984 ;
985 [label="age <= 32.5\ngini = 0.4\nsamples = 8\nvalue = [7, 3]"] ;
981 -> 985 ;
986 [label="gini = 0.4\nsamples = 6\nvalue = [4, 2]"] ;
985 -> 986 ;
987 [label="gini = 0.4\nsamples = 2\nvalue = [3, 1]"] ;
985 -> 987 ;
988 [label="gini = 0.0\nsamples = 6\nvalue = [10, 0]"] ;
980 -> 988 ;
989 [label="total_pages_visited <= 11.5\ngini = 0.2\nsamples = 144\nvalue = [205, 19]"] ;
967 -> 989 ;
990 [label="age <= 41.5\ngini = 0.1\nsamples = 85\nvalue = [131, 9]"] ;
989 -> 990 ;
991 [label="age <= 39.5\ngini = 0.2\nsamples = 53\nvalue = [83, 9]"] ;
990 -> 991 ;
992 [label="age <= 37.5\ngini = 0.1\nsamples = 45\nvalue = [77, 5]"] ;
991 -> 992 ;
993 [label="age <= 36.5\ngini = 0.2\nsamples = 30\nvalue = [46, 5]"] ;
992 -> 993 ;
994 [label="age <= 35.5\ngini = 0.1\nsamples = 18\nvalue = [29, 1]"] ;
993 -> 994 ;
995 [label="gini = 0.2\nsamples = 6\nvalue = [9, 1]"] ;
994 -> 995 ;
996 [label="gini = 0.0\nsamples = 12\nvalue = [20, 0]"] ;
994 -> 996 ;
997 [label="gini = 0.3\nsamples = 12\nvalue = [17, 4]"] ;
993 -> 997 ;
998 [label="gini = 0.0\nsamples = 15\nvalue = [31, 0]"] ;
992 -> 998 ;
999 [label="age <= 40.5\ngini = 0.5\nsamples = 8\nvalue = [6, 4]"] ;
991 -> 999 ;
1000 [label="gini = 0.5\nsamples = 4\nvalue = [3, 2]"] ;
999 -> 1000 ;
1001 [label="gini = 0.5\nsamples = 4\nvalue = [3, 2]"] ;
999 -> 1001 ;
1002 [label="gini = 0.0\nsamples = 32\nvalue = [48, 0]"] ;
990 -> 1002 ;
1003 [label="age <= 43.5\ngini = 0.2\nsamples = 59\nvalue = [74, 10]"] ;
989 -> 1003 ;
1004 [label="total_pages_visited <= 12.5\ngini = 0.2\nsamples = 44\nvalue = [53, 9]"] ;
1003 -> 1004 ;
1005 [label="age <= 41.0\ngini = 0.3\nsamples = 32\nvalue = [35, 7]"] ;
1004 -> 1005 ;
1006 [label="age <= 36.5\ngini = 0.2\nsamples = 27\nvalue = [31, 5]"] ;
1005 -> 1006 ;
1007 [label="age <= 35.5\ngini = 0.3\nsamples = 13\nvalue = [16, 3]"] ;
1006 -> 1007 ;
1008 [label="gini = 0.3\nsamples = 7\nvalue = [11, 2]"] ;
1007 -> 1008 ;
1009 [label="gini = 0.3\nsamples = 6\nvalue = [5, 1]"] ;
1007 -> 1009 ;
1010 [label="age <= 37.5\ngini = 0.2\nsamples = 14\nvalue = [15, 2]"] ;
1006 -> 1010 ;
1011 [label="gini = 0.0\nsamples = 2\nvalue = [2, 0]"] ;
1010 -> 1011 ;
1012 [label="age <= 39.5\ngini = 0.2\nsamples = 12\nvalue = [13, 2]"] ;
1010 -> 1012 ;
1013 [label="age <= 38.5\ngini = 0.2\nsamples = 7\nvalue = [8, 1]"] ;
1012 -> 1013 ;
1014 [label="gini = 0.2\nsamples = 6\nvalue = [7, 1]"] ;
1013 -> 1014 ;
1015 [label="gini = 0.0\nsamples = 1\nvalue = [1, 0]"] ;
1013 -> 1015 ;
1016 [label="gini = 0.3\nsamples = 5\nvalue = [5, 1]"] ;
1012 -> 1016 ;
1017 [label="age <= 42.5\ngini = 0.4\nsamples = 5\nvalue = [4, 2]"] ;
1005 -> 1017 ;
1018 [label="gini = 0.5\nsamples = 2\nvalue = [1, 1]"] ;
1017 -> 1018 ;
1019 [label="gini = 0.4\nsamples = 3\nvalue = [3, 1]"] ;
1017 -> 1019 ;
1020 [label="age <= 36.5\ngini = 0.2\nsamples = 12\nvalue = [18, 2]"] ;
1004 -> 1020 ;
1021 [label="gini = 0.0\nsamples = 6\nvalue = [12, 0]"] ;
1020 -> 1021 ;
1022 [label="age <= 37.5\ngini = 0.4\nsamples = 6\nvalue = [6, 2]"] ;
1020 -> 1022 ;
1023 [label="gini = 0.4\nsamples = 2\nvalue = [1, 2]"] ;
1022 -> 1023 ;
1024 [label="gini = 0.0\nsamples = 4\nvalue = [5, 0]"] ;
1022 -> 1024 ;
1025 [label="age <= 49.5\ngini = 0.1\nsamples = 15\nvalue = [21, 1]"] ;
1003 -> 1025 ;
1026 [label="gini = 0.0\nsamples = 9\nvalue = [13, 0]"] ;
1025 -> 1026 ;
1027 [label="age <= 50.5\ngini = 0.2\nsamples = 6\nvalue = [8, 1]"] ;
1025 -> 1027 ;
1028 [label="gini = 0.3\nsamples = 3\nvalue = [4, 1]"] ;
1027 -> 1028 ;
1029 [label="gini = 0.0\nsamples = 3\nvalue = [4, 0]"] ;
1027 -> 1029 ;
1030 [label="total_pages_visited <= 10.5\ngini = 0.0\nsamples = 17851\nvalue = [28171, 212]"] ;
4 -> 1030 ;
1031 [label="total_pages_visited <= 8.5\ngini = 0.0\nsamples = 17260\nvalue = [27378, 100]"] ;
1030 -> 1031 ;
1032 [label="country_US <= 0.5\ngini = 0.0\nsamples = 16082\nvalue = [25555, 36]"] ;
1031 -> 1032 ;
1033 [label="age <= 32.5\ngini = 0.0\nsamples = 3451\nvalue = [5521, 13]"] ;
1032 -> 1033 ;
1034 [label="age <= 31.5\ngini = 0.0\nsamples = 2127\nvalue = [3366, 11]"] ;
1033 -> 1034 ;
1035 [label="total_pages_visited <= 7.5\ngini = 0.0\nsamples = 1986\nvalue = [3152, 7]"] ;
1034 -> 1035 ;
1036 [label="total_pages_visited <= 6.5\ngini = 0.0\nsamples = 1874\nvalue = [2970, 3]"] ;
1035 -> 1036 ;
1037 [label="age <= 30.5\ngini = 0.0\nsamples = 1702\nvalue = [2703, 1]"] ;
1036 -> 1037 ;
1038 [label="gini = 0.0\nsamples = 1575\nvalue = [2510, 0]"] ;
1037 -> 1038 ;
1039 [label="total_pages_visited <= 2.5\ngini = 0.0\nsamples = 127\nvalue = [193, 1]"] ;
1037 -> 1039 ;
1040 [label="total_pages_visited <= 1.5\ngini = 0.0\nsamples = 48\nvalue = [77, 1]"] ;
1039 -> 1040 ;
1041 [label="gini = 0.0\nsamples = 26\nvalue = [42, 0]"] ;
1040 -> 1041 ;
1042 [label="gini = 0.1\nsamples = 22\nvalue = [35, 1]"] ;
1040 -> 1042 ;
1043 [label="gini = 0.0\nsamples = 79\nvalue = [116, 0]"] ;
1039 -> 1043 ;
1044 [label="age <= 20.5\ngini = 0.0\nsamples = 172\nvalue = [267, 2]"] ;
1036 -> 1044 ;
1045 [label="age <= 19.5\ngini = 0.1\nsamples = 29\nvalue = [40, 2]"] ;
1044 -> 1045 ;
1046 [label="gini = 0.0\nsamples = 17\nvalue = [26, 0]"] ;
1045 -> 1046 ;
1047 [label="gini = 0.2\nsamples = 12\nvalue = [14, 2]"] ;
1045 -> 1047 ;
1048 [label="gini = 0.0\nsamples = 143\nvalue = [227, 0]"] ;
1044 -> 1048 ;
1049 [label="age <= 24.5\ngini = 0.0\nsamples = 112\nvalue = [182, 4]"] ;
1035 -> 1049 ;
1050 [label="gini = 0.0\nsamples = 60\nvalue = [100, 0]"] ;
1049 -> 1050 ;
1051 [label="age <= 25.5\ngini = 0.1\nsamples = 52\nvalue = [82, 4]"] ;
1049 -> 1051 ;
1052 [label="gini = 0.4\nsamples = 8\nvalue = [12, 4]"] ;
1051 -> 1052 ;
1053 [label="gini = 0.0\nsamples = 44\nvalue = [70, 0]"] ;
1051 -> 1053 ;
1054 [label="total_pages_visited <= 4.5\ngini = 0.0\nsamples = 141\nvalue = [214, 4]"] ;
1034 -> 1054 ;
1055 [label="gini = 0.0\nsamples = 86\nvalue = [132, 0]"] ;
1054 -> 1055 ;
1056 [label="total_pages_visited <= 5.5\ngini = 0.1\nsamples = 55\nvalue = [82, 4]"] ;
1054 -> 1056 ;
1057 [label="gini = 0.2\nsamples = 13\nvalue = [19, 2]"] ;
1056 -> 1057 ;
1058 [label="total_pages_visited <= 6.5\ngini = 0.1\nsamples = 42\nvalue = [63, 2]"] ;
1056 -> 1058 ;
1059 [label="gini = 0.0\nsamples = 13\nvalue = [23, 0]"] ;
1058 -> 1059 ;
1060 [label="total_pages_visited <= 7.5\ngini = 0.1\nsamples = 29\nvalue = [40, 2]"] ;
1058 -> 1060 ;
1061 [label="gini = 0.1\nsamples = 18\nvalue = [26, 2]"] ;
1060 -> 1061 ;
1062 [label="gini = 0.0\nsamples = 11\nvalue = [14, 0]"] ;
1060 -> 1062 ;
1063 [label="age <= 39.5\ngini = 0.0\nsamples = 1324\nvalue = [2155, 2]"] ;
1033 -> 1063 ;
1064 [label="gini = 0.0\nsamples = 832\nvalue = [1356, 0]"] ;
1063 -> 1064 ;
1065 [label="age <= 40.5\ngini = 0.0\nsamples = 492\nvalue = [799, 2]"] ;
1063 -> 1065 ;
1066 [label="total_pages_visited <= 7.5\ngini = 0.0\nsamples = 78\nvalue = [125, 2]"] ;
1065 -> 1066 ;
1067 [label="gini = 0.0\nsamples = 74\nvalue = [122, 0]"] ;
1066 -> 1067 ;
1068 [label="gini = 0.5\nsamples = 4\nvalue = [3, 2]"] ;
1066 -> 1068 ;
1069 [label="gini = 0.0\nsamples = 414\nvalue = [674, 0]"] ;
1065 -> 1069 ;
1070 [label="total_pages_visited <= 5.5\ngini = 0.0\nsamples = 12631\nvalue = [20034, 23]"] ;
1032 -> 1070 ;
1071 [label="age <= 43.5\ngini = 0.0\nsamples = 9484\nvalue = [15088, 3]"] ;
1070 -> 1071 ;
1072 [label="total_pages_visited <= 4.5\ngini = 0.0\nsamples = 8726\nvalue = [13917, 2]"] ;
1071 -> 1072 ;
1073 [label="gini = 0.0\nsamples = 7242\nvalue = [11545, 0]"] ;
1072 -> 1073 ;
1074 [label="age <= 25.5\ngini = 0.0\nsamples = 1484\nvalue = [2372, 2]"] ;
1072 -> 1074 ;
1075 [label="age <= 24.5\ngini = 0.0\nsamples = 468\nvalue = [737, 2]"] ;
1074 -> 1075 ;
1076 [label="gini = 0.0\nsamples = 402\nvalue = [640, 0]"] ;
1075 -> 1076 ;
1077 [label="gini = 0.0\nsamples = 66\nvalue = [97, 2]"] ;
1075 -> 1077 ;
1078 [label="gini = 0.0\nsamples = 1016\nvalue = [1635, 0]"] ;
1074 -> 1078 ;
1079 [label="age <= 44.5\ngini = 0.0\nsamples = 758\nvalue = [1171, 1]"] ;
1071 -> 1079 ;
1080 [label="total_pages_visited <= 3.5\ngini = 0.0\nsamples = 151\nvalue = [228, 1]"] ;
1079 -> 1080 ;
1081 [label="gini = 0.0\nsamples = 101\nvalue = [162, 0]"] ;
1080 -> 1081 ;
1082 [label="total_pages_visited <= 4.5\ngini = 0.0\nsamples = 50\nvalue = [66, 1]"] ;
1080 -> 1082 ;
1083 [label="gini = 0.1\nsamples = 27\nvalue = [34, 1]"] ;
1082 -> 1083 ;
1084 [label="gini = 0.0\nsamples = 23\nvalue = [32, 0]"] ;
1082 -> 1084 ;
1085 [label="gini = 0.0\nsamples = 607\nvalue = [943, 0]"] ;
1079 -> 1085 ;
1086 [label="age <= 31.5\ngini = 0.0\nsamples = 3147\nvalue = [4946, 20]"] ;
1070 -> 1086 ;
1087 [label="age <= 28.5\ngini = 0.0\nsamples = 1766\nvalue = [2791, 17]"] ;
1086 -> 1087 ;
1088 [label="total_pages_visited <= 7.5\ngini = 0.0\nsamples = 1360\nvalue = [2141, 9]"] ;
1087 -> 1088 ;
1089 [label="age <= 23.5\ngini = 0.0\nsamples = 1016\nvalue = [1565, 4]"] ;
1088 -> 1089 ;
1090 [label="total_pages_visited <= 6.5\ngini = 0.0\nsamples = 496\nvalue = [747, 4]"] ;
1089 -> 1090 ;
1091 [label="age <= 22.5\ngini = 0.0\nsamples = 280\nvalue = [423, 3]"] ;
1090 -> 1091 ;
1092 [label="age <= 20.5\ngini = 0.0\nsamples = 234\nvalue = [351, 1]"] ;
1091 -> 1092 ;
1093 [label="gini = 0.0\nsamples = 142\nvalue = [212, 0]"] ;
1092 -> 1093 ;
1094 [label="age <= 21.5\ngini = 0.0\nsamples = 92\nvalue = [139, 1]"] ;
1092 -> 1094 ;
1095 [label="gini = 0.0\nsamples = 44\nvalue = [63, 1]"] ;
1094 -> 1095 ;
1096 [label="gini = 0.0\nsamples = 48\nvalue = [76, 0]"] ;
1094 -> 1096 ;
1097 [label="gini = 0.1\nsamples = 46\nvalue = [72, 2]"] ;
1091 -> 1097 ;
1098 [label="age <= 17.5\ngini = 0.0\nsamples = 216\nvalue = [324, 1]"] ;
1090 -> 1098 ;
1099 [label="gini = 0.1\nsamples = 19\nvalue = [25, 1]"] ;
1098 -> 1099 ;
1100 [label="gini = 0.0\nsamples = 197\nvalue = [299, 0]"] ;
1098 -> 1100 ;
1101 [label="gini = 0.0\nsamples = 520\nvalue = [818, 0]"] ;
1089 -> 1101 ;
1102 [label="age <= 25.5\ngini = 0.0\nsamples = 344\nvalue = [576, 5]"] ;
1088 -> 1102 ;
1103 [label="age <= 22.5\ngini = 0.0\nsamples = 231\nvalue = [385, 1]"] ;
1102 -> 1103 ;
1104 [label="gini = 0.0\nsamples = 137\nvalue = [233, 0]"] ;
1103 -> 1104 ;
1105 [label="age <= 23.5\ngini = 0.0\nsamples = 94\nvalue = [152, 1]"] ;
1103 -> 1105 ;
1106 [label="gini = 0.0\nsamples = 31\nvalue = [54, 1]"] ;
1105 -> 1106 ;
1107 [label="gini = 0.0\nsamples = 63\nvalue = [98, 0]"] ;
1105 -> 1107 ;
1108 [label="age <= 26.5\ngini = 0.0\nsamples = 113\nvalue = [191, 4]"] ;
1102 -> 1108 ;
1109 [label="gini = 0.1\nsamples = 34\nvalue = [55, 3]"] ;
1108 -> 1109 ;
1110 [label="age <= 27.5\ngini = 0.0\nsamples = 79\nvalue = [136, 1]"] ;
1108 -> 1110 ;
1111 [label="gini = 0.0\nsamples = 42\nvalue = [69, 0]"] ;
1110 -> 1111 ;
1112 [label="gini = 0.0\nsamples = 37\nvalue = [67, 1]"] ;
1110 -> 1112 ;
1113 [label="total_pages_visited <= 6.5\ngini = 0.0\nsamples = 406\nvalue = [650, 8]"] ;
1087 -> 1113 ;
1114 [label="age <= 29.5\ngini = 0.0\nsamples = 163\nvalue = [254, 2]"] ;
1113 -> 1114 ;
1115 [label="gini = 0.0\nsamples = 50\nvalue = [81, 0]"] ;
1114 -> 1115 ;
1116 [label="age <= 30.5\ngini = 0.0\nsamples = 113\nvalue = [173, 2]"] ;
1114 -> 1116 ;
1117 [label="gini = 0.0\nsamples = 60\nvalue = [93, 2]"] ;
1116 -> 1117 ;
1118 [label="gini = 0.0\nsamples = 53\nvalue = [80, 0]"] ;
1116 -> 1118 ;
1119 [label="age <= 29.5\ngini = 0.0\nsamples = 243\nvalue = [396, 6]"] ;
1113 -> 1119 ;
1120 [label="total_pages_visited <= 7.5\ngini = 0.1\nsamples = 80\nvalue = [136, 4]"] ;
1119 -> 1120 ;
1121 [label="gini = 0.1\nsamples = 42\nvalue = [69, 2]"] ;
1120 -> 1121 ;
1122 [label="gini = 0.1\nsamples = 38\nvalue = [67, 2]"] ;
1120 -> 1122 ;
1123 [label="total_pages_visited <= 7.5\ngini = 0.0\nsamples = 163\nvalue = [260, 2]"] ;
1119 -> 1123 ;
1124 [label="age <= 30.5\ngini = 0.0\nsamples = 94\nvalue = [143, 2]"] ;
1123 -> 1124 ;
1125 [label="gini = 0.0\nsamples = 40\nvalue = [66, 0]"] ;
1124 -> 1125 ;
1126 [label="gini = 0.0\nsamples = 54\nvalue = [77, 2]"] ;
1124 -> 1126 ;
1127 [label="gini = 0.0\nsamples = 69\nvalue = [117, 0]"] ;
1123 -> 1127 ;
1128 [label="total_pages_visited <= 7.5\ngini = 0.0\nsamples = 1381\nvalue = [2155, 3]"] ;
1086 -> 1128 ;
1129 [label="age <= 38.5\ngini = 0.0\nsamples = 1052\nvalue = [1635, 1]"] ;
1128 -> 1129 ;
1130 [label="gini = 0.0\nsamples = 613\nvalue = [962, 0]"] ;
1129 -> 1130 ;
1131 [label="age <= 39.5\ngini = 0.0\nsamples = 439\nvalue = [673, 1]"] ;
1129 -> 1131 ;
1132 [label="total_pages_visited <= 6.5\ngini = 0.0\nsamples = 66\nvalue = [106, 1]"] ;
1131 -> 1132 ;
1133 [label="gini = 0.0\nsamples = 31\nvalue = [49, 0]"] ;
1132 -> 1133 ;
1134 [label="gini = 0.0\nsamples = 35\nvalue = [57, 1]"] ;
1132 -> 1134 ;
1135 [label="gini = 0.0\nsamples = 373\nvalue = [567, 0]"] ;
1131 -> 1135 ;
1136 [label="age <= 35.5\ngini = 0.0\nsamples = 329\nvalue = [520, 2]"] ;
1128 -> 1136 ;
1137 [label="age <= 32.5\ngini = 0.0\nsamples = 125\nvalue = [199, 2]"] ;
1136 -> 1137 ;
1138 [label="gini = 0.0\nsamples = 28\nvalue = [45, 0]"] ;
1137 -> 1138 ;
1139 [label="age <= 33.5\ngini = 0.0\nsamples = 97\nvalue = [154, 2]"] ;
1137 -> 1139 ;
1140 [label="gini = 0.1\nsamples = 25\nvalue = [36, 1]"] ;
1139 -> 1140 ;
1141 [label="age <= 34.5\ngini = 0.0\nsamples = 72\nvalue = [118, 1]"] ;
1139 -> 1141 ;
1142 [label="gini = 0.0\nsamples = 32\nvalue = [53, 0]"] ;
1141 -> 1142 ;
1143 [label="gini = 0.0\nsamples = 40\nvalue = [65, 1]"] ;
1141 -> 1143 ;
1144 [label="gini = 0.0\nsamples = 204\nvalue = [321, 0]"] ;
1136 -> 1144 ;
1145 [label="country_UK <= 0.5\ngini = 0.1\nsamples = 1178\nvalue = [1823, 64]"] ;
1031 -> 1145 ;
1146 [label="age <= 22.5\ngini = 0.1\nsamples = 930\nvalue = [1458, 43]"] ;
1145 -> 1146 ;
1147 [label="age <= 21.5\ngini = 0.1\nsamples = 163\nvalue = [240, 19]"] ;
1146 -> 1147 ;
1148 [label="total_pages_visited <= 9.5\ngini = 0.1\nsamples = 135\nvalue = [203, 11]"] ;
1147 -> 1148 ;
1149 [label="age <= 20.5\ngini = 0.1\nsamples = 85\nvalue = [134, 9]"] ;
1148 -> 1149 ;
1150 [label="age <= 17.5\ngini = 0.1\nsamples = 62\nvalue = [94, 8]"] ;
1149 -> 1150 ;
1151 [label="gini = 0.2\nsamples = 13\nvalue = [19, 2]"] ;
1150 -> 1151 ;
1152 [label="age <= 19.5\ngini = 0.1\nsamples = 49\nvalue = [75, 6]"] ;
1150 -> 1152 ;
1153 [label="age <= 18.5\ngini = 0.1\nsamples = 30\nvalue = [42, 3]"] ;
1152 -> 1153 ;
1154 [label="gini = 0.1\nsamples = 13\nvalue = [16, 1]"] ;
1153 -> 1154 ;
1155 [label="gini = 0.1\nsamples = 17\nvalue = [26, 2]"] ;
1153 -> 1155 ;
1156 [label="gini = 0.2\nsamples = 19\nvalue = [33, 3]"] ;
1152 -> 1156 ;
1157 [label="gini = 0.0\nsamples = 23\nvalue = [40, 1]"] ;
1149 -> 1157 ;
1158 [label="age <= 18.5\ngini = 0.1\nsamples = 50\nvalue = [69, 2]"] ;
1148 -> 1158 ;
1159 [label="gini = 0.0\nsamples = 15\nvalue = [20, 0]"] ;
1158 -> 1159 ;
1160 [label="age <= 19.5\ngini = 0.1\nsamples = 35\nvalue = [49, 2]"] ;
1158 -> 1160 ;
1161 [label="gini = 0.1\nsamples = 11\nvalue = [15, 1]"] ;
1160 -> 1161 ;
1162 [label="age <= 20.5\ngini = 0.1\nsamples = 24\nvalue = [34, 1]"] ;
1160 -> 1162 ;
1163 [label="gini = 0.0\nsamples = 11\nvalue = [16, 0]"] ;
1162 -> 1163 ;
1164 [label="gini = 0.1\nsamples = 13\nvalue = [18, 1]"] ;
1162 -> 1164 ;
1165 [label="total_pages_visited <= 9.5\ngini = 0.3\nsamples = 28\nvalue = [37, 8]"] ;
1147 -> 1165 ;
1166 [label="gini = 0.1\nsamples = 18\nvalue = [26, 2]"] ;
1165 -> 1166 ;
1167 [label="gini = 0.5\nsamples = 10\nvalue = [11, 6]"] ;
1165 -> 1167 ;
1168 [label="total_pages_visited <= 9.5\ngini = 0.0\nsamples = 767\nvalue = [1218, 24]"] ;
1146 -> 1168 ;
1169 [label="age <= 32.5\ngini = 0.0\nsamples = 476\nvalue = [754, 9]"] ;
1168 -> 1169 ;
1170 [label="age <= 26.5\ngini = 0.0\nsamples = 244\nvalue = [391, 3]"] ;
1169 -> 1170 ;
1171 [label="age <= 24.5\ngini = 0.0\nsamples = 94\nvalue = [156, 3]"] ;
1170 -> 1171 ;
1172 [label="gini = 0.0\nsamples = 45\nvalue = [71, 0]"] ;
1171 -> 1172 ;
1173 [label="age <= 25.5\ngini = 0.1\nsamples = 49\nvalue = [85, 3]"] ;
1171 -> 1173 ;
1174 [label="gini = 0.1\nsamples = 20\nvalue = [34, 2]"] ;
1173 -> 1174 ;
1175 [label="gini = 0.0\nsamples = 29\nvalue = [51, 1]"] ;
1173 -> 1175 ;
1176 [label="gini = 0.0\nsamples = 150\nvalue = [235, 0]"] ;
1170 -> 1176 ;
1177 [label="age <= 33.5\ngini = 0.0\nsamples = 232\nvalue = [363, 6]"] ;
1169 -> 1177 ;
1178 [label="gini = 0.1\nsamples = 28\nvalue = [40, 2]"] ;
1177 -> 1178 ;
1179 [label="age <= 35.5\ngini = 0.0\nsamples = 204\nvalue = [323, 4]"] ;
1177 -> 1179 ;
1180 [label="gini = 0.0\nsamples = 50\nvalue = [83, 0]"] ;
1179 -> 1180 ;
1181 [label="age <= 39.5\ngini = 0.0\nsamples = 154\nvalue = [240, 4]"] ;
1179 -> 1181 ;
1182 [label="age <= 38.5\ngini = 0.1\nsamples = 70\nvalue = [93, 3]"] ;
1181 -> 1182 ;
1183 [label="age <= 36.5\ngini = 0.0\nsamples = 49\nvalue = [64, 1]"] ;
1182 -> 1183 ;
1184 [label="gini = 0.1\nsamples = 18\nvalue = [24, 1]"] ;
1183 -> 1184 ;
1185 [label="gini = 0.0\nsamples = 31\nvalue = [40, 0]"] ;
1183 -> 1185 ;
1186 [label="gini = 0.1\nsamples = 21\nvalue = [29, 2]"] ;
1182 -> 1186 ;
1187 [label="age <= 42.5\ngini = 0.0\nsamples = 84\nvalue = [147, 1]"] ;
1181 -> 1187 ;
1188 [label="gini = 0.0\nsamples = 36\nvalue = [73, 0]"] ;
1187 -> 1188 ;
1189 [label="age <= 43.5\ngini = 0.0\nsamples = 48\nvalue = [74, 1]"] ;
1187 -> 1189 ;
1190 [label="gini = 0.1\nsamples = 12\nvalue = [15, 1]"] ;
1189 -> 1190 ;
1191 [label="gini = 0.0\nsamples = 36\nvalue = [59, 0]"] ;
1189 -> 1191 ;
1192 [label="age <= 37.5\ngini = 0.1\nsamples = 291\nvalue = [464, 15]"] ;
1168 -> 1192 ;
1193 [label="age <= 36.5\ngini = 0.1\nsamples = 207\nvalue = [319, 14]"] ;
1192 -> 1193 ;
1194 [label="age <= 29.5\ngini = 0.1\nsamples = 196\nvalue = [298, 9]"] ;
1193 -> 1194 ;
1195 [label="age <= 27.5\ngini = 0.1\nsamples = 103\nvalue = [162, 7]"] ;
1194 -> 1195 ;
1196 [label="age <= 23.5\ngini = 0.0\nsamples = 74\nvalue = [120, 2]"] ;
1195 -> 1196 ;
1197 [label="gini = 0.1\nsamples = 18\nvalue = [23, 1]"] ;
1196 -> 1197 ;
1198 [label="age <= 26.5\ngini = 0.0\nsamples = 56\nvalue = [97, 1]"] ;
1196 -> 1198 ;
1199 [label="gini = 0.0\nsamples = 40\nvalue = [67, 0]"] ;
1198 -> 1199 ;
1200 [label="gini = 0.1\nsamples = 16\nvalue = [30, 1]"] ;
1198 -> 1200 ;
1201 [label="age <= 28.5\ngini = 0.2\nsamples = 29\nvalue = [42, 5]"] ;
1195 -> 1201 ;
1202 [label="gini = 0.2\nsamples = 11\nvalue = [17, 2]"] ;
1201 -> 1202 ;
1203 [label="gini = 0.2\nsamples = 18\nvalue = [25, 3]"] ;
1201 -> 1203 ;
1204 [label="age <= 32.5\ngini = 0.0\nsamples = 93\nvalue = [136, 2]"] ;
1194 -> 1204 ;
1205 [label="gini = 0.0\nsamples = 44\nvalue = [70, 0]"] ;
1204 -> 1205 ;
1206 [label="age <= 35.5\ngini = 0.1\nsamples = 49\nvalue = [66, 2]"] ;
1204 -> 1206 ;
1207 [label="age <= 34.5\ngini = 0.1\nsamples = 38\nvalue = [53, 2]"] ;
1206 -> 1207 ;
1208 [label="age <= 33.5\ngini = 0.0\nsamples = 28\nvalue = [39, 1]"] ;
1207 -> 1208 ;
1209 [label="gini = 0.1\nsamples = 14\nvalue = [23, 1]"] ;
1208 -> 1209 ;
1210 [label="gini = 0.0\nsamples = 14\nvalue = [16, 0]"] ;
1208 -> 1210 ;
1211 [label="gini = 0.1\nsamples = 10\nvalue = [14, 1]"] ;
1207 -> 1211 ;
1212 [label="gini = 0.0\nsamples = 11\nvalue = [13, 0]"] ;
1206 -> 1212 ;
1213 [label="gini = 0.3\nsamples = 11\nvalue = [21, 5]"] ;
1193 -> 1213 ;
1214 [label="age <= 46.5\ngini = 0.0\nsamples = 84\nvalue = [145, 1]"] ;
1192 -> 1214 ;
1215 [label="gini = 0.0\nsamples = 69\nvalue = [119, 0]"] ;
1214 -> 1215 ;
1216 [label="age <= 47.5\ngini = 0.1\nsamples = 15\nvalue = [26, 1]"] ;
1214 -> 1216 ;
1217 [label="gini = 0.3\nsamples = 3\nvalue = [5, 1]"] ;
1216 -> 1217 ;
1218 [label="gini = 0.0\nsamples = 12\nvalue = [21, 0]"] ;
1216 -> 1218 ;
1219 [label="age <= 28.5\ngini = 0.1\nsamples = 248\nvalue = [365, 21]"] ;
1145 -> 1219 ;
1220 [label="total_pages_visited <= 9.5\ngini = 0.2\nsamples = 117\nvalue = [161, 17]"] ;
1219 -> 1220 ;
1221 [label="age <= 21.5\ngini = 0.1\nsamples = 70\nvalue = [103, 9]"] ;
1220 -> 1221 ;
1222 [label="gini = 0.0\nsamples = 22\nvalue = [30, 0]"] ;
1221 -> 1222 ;
1223 [label="age <= 22.5\ngini = 0.2\nsamples = 48\nvalue = [73, 9]"] ;
1221 -> 1223 ;
1224 [label="gini = 0.4\nsamples = 3\nvalue = [2, 1]"] ;
1223 -> 1224 ;
1225 [label="age <= 25.5\ngini = 0.2\nsamples = 45\nvalue = [71, 8]"] ;
1223 -> 1225 ;
1226 [label="age <= 23.5\ngini = 0.2\nsamples = 29\nvalue = [49, 7]"] ;
1225 -> 1226 ;
1227 [label="gini = 0.2\nsamples = 9\nvalue = [16, 2]"] ;
1226 -> 1227 ;
1228 [label="age <= 24.5\ngini = 0.2\nsamples = 20\nvalue = [33, 5]"] ;
1226 -> 1228 ;
1229 [label="gini = 0.3\nsamples = 9\nvalue = [10, 2]"] ;
1228 -> 1229 ;
1230 [label="gini = 0.2\nsamples = 11\nvalue = [23, 3]"] ;
1228 -> 1230 ;
1231 [label="age <= 26.5\ngini = 0.1\nsamples = 16\nvalue = [22, 1]"] ;
1225 -> 1231 ;
1232 [label="gini = 0.0\nsamples = 9\nvalue = [13, 0]"] ;
1231 -> 1232 ;
